2.089132730844015109e-05 5.531208030518555805e-05 1.185208844126195931e-04 1.350555761845813839e-04 -4.383678190226078443e-05 -4.928368303383513489e-05 7.475688761515716452e-04 1.335358314530223078e-03 -2.591867534539688423e-03 1.397201945735495438e-04 3.534556276451461662e-04 6.461983343449051237e-04 2.355422696323810814e-04 -1.478120465753069877e-03 -2.107631841811438266e-03 -1.551256312549814144e-03 -1.150525515090347443e-02 -4.665661949578014250e-02 1.933928827300086849e-04 4.742687706757950112e-04 7.679452342314268100e-04 -7.213831257196164678e-05 -2.754434223861400820e-03 -4.073220345854657205e-03 -4.590997092435342673e-03 -1.929113343756230434e-02 -5.755007399888344838e-02 1.629366933712041209e-04 3.845337271078872994e-04 5.488476550771520133e-04 -2.377155004422864301e-04 -2.262987041861675309e-03 -2.197858991090653139e-03 1.452799285592259104e-03 2.479407045918351139e-04 -7.842292216001940999e-03 1.581702143442930862e-04 3.665568041608117033e-04 5.156277433973865650e-04 -1.156712151835563552e-04 -1.489626310669534557e-03 5.975410096916767590e-04 1.026610704801583437e-02 2.137671491385518055e-02 2.311537452370242621e-02 5.464147539185584997e-04 1.202613542285922493e-03 1.586060455867092803e-03 -7.878669892971107251e-04 -3.730038859798940568e-03 -2.055850927961265246e-03 -8.531018986335875409e-03 -5.604275429594704483e-02 -1.443724450567261952e-01 1.628012492336988748e-03 3.572987909453269762e-03 4.095894102024052498e-03 -4.278244346239363192e-03 -1.161229009664572348e-02 -2.383115711507862063e-03 -1.701866740538624662e-02 -1.127023656071239888e-01 -2.590129255259892016e-01 1.454107548868613159e-03 3.250570109240385336e-03 3.418676026617822362e-03 -4.062736425397570419e-03 -5.860726263496768805e-03 1.477365156632937625e-02 2.967219099629712573e-02 6.338701606181845749e-02 7.082729488028689790e-02 1.427367313019300065e-03 3.189863838081641225e-03 3.293942677073453517e-03 -3.745930972182652269e-03 -3.216749959015737566e-03 2.630350040981053669e-02 8.356184992142547119e-02 1.904219683186012535e-01 2.874557315829605053e-01 1.744242906600274685e-03 3.497959301495690964e-03 2.402465463358501203e-03 -5.709736736290674242e-03 -6.955462524085354037e-03 1.903157785028408971e-03 -2.131700697217463192e-02 -9.068993665156578621e-02 -1.697948257651175352e-01 3.548793539466411819e-03 6.854402084576397859e-03 2.718659736569240502e-03 -1.288935018996324212e-02 -7.138540197899689334e-03 2.197902236513081184e-02 3.494672581727441968e-02 1.203801565762606558e-02 6.224902326620392230e-03 3.543831087623384134e-03 6.765505977148002920e-03 2.574514502752281615e-03 -1.088723643649637529e-02 4.277103688878596509e-03 5.912926110560828147e-02 1.151709130324800184e-01 2.632013853837997797e-01 3.061838183205413677e-01 2.306150055341380650e-03 3.874319895585366918e-03 -2.738791063319759235e-04 -7.328508653591936720e-03 1.411604276780954606e-03 1.063159498592006202e-02 -2.061146384587613650e-02 -5.226417969079635850e-02 -1.197274114268449818e-01 4.676502093155710492e-03 7.518104088304253078e-03 -2.668391157030383914e-03 -1.565136535415589600e-02 5.407163631607293797e-03 1.907188755918884718e-02 -5.182734165595575399e-02 -1.324531884000294812e-01 -3.392855455297700273e-01 2.675315481619046018e-03 3.635280928782875110e-03 -3.783919055504909000e-03 -1.071879281507140923e-02 -4.119864005591758818e-03 -2.735924046086582462e-02 -1.395326614798518550e-01 -3.064092044208283627e-01 -4.395607306513066304e-01 1.382511316989884541e-04 4.910645677895620438e-04 9.210738845301786031e-04 6.018120255698410212e-04 1.275533686010819792e-04 1.530772696375553481e-03 1.103042208061885470e-03 3.413319946762651078e-03 4.524875425917276525e-03 5.544379711645352560e-04 -2.183083761927295720e-03 3.319280933396430433e-03 1.642382216193525495e-03 4.653446629281216863e-03 5.249444245145426340e-03 -1.690325127312598949e-03 -6.980552843546002258e-03 -3.918081662368801642e-03 1.431969135456665366e-03 3.685781809694381374e-03 3.461004081530596674e-03 -3.352559839289010434e-03 -7.817184595115191093e-03 -3.024217457616884541e-03 1.363988081812097684e-03 3.373260402358076865e-03 2.980606672528912128e-03 -3.564472417879582886e-03 -6.198221407449998506e-03 1.019346997503744502e-02 4.447548766958683147e-03 9.839023959817130849e-03 7.980134837356529440e-03 1.214644282180319008e-03 1.088348509078186817e-02 1.994906996236285590e-02 1.511267801843948350e-02 2.967082481244373224e-02 1.759838850905106819e-02 -3.659814004822002122e-03 2.507133241573849397e-02 2.387774253330119875e-02 1.455003314501051442e-02 2.586908513448160987e-02 1.065478753281853298e-02 -5.439481853087246160e-03 3.233523374212630280e-02 2.401413305675444837e-02 1.447528819922426491e-02 2.478801684614590634e-02 8.756233141576506146e-03 -1.106529586049116720e-02 1.962704101987315305e-02 7.191395530213230691e-02 1.643619485270863753e-02 2.402371665992338035e-02 7.889615038571237346e-03 2.076189966881880535e-03 3.489026883306876881e-02 -8.549706495546031959e-03 3.507399591462574684e-02 4.182026425582604373e-02 2.874687087658085120e-03 -3.115491715187472792e-03 3.894534649654878000e-02 2.720522595395575075e-02 3.576815536627982184e-02 3.941836228896677952e-02 -1.377340322486982549e-03 6.674006911981868184e-03 7.883900218206933708e-02 8.696839952258111905e-02 2.132320449413788871e-02 1.788817037946311556e-02 -3.282917667899733129e-03 1.656252222120803072e-02 4.486880273145997522e-02 -2.864042731353289017e-02 4.333890218335539196e-02 2.824253649360806626e-02 -1.801637050138025706e-02 2.520584357519489380e-02 7.905409482918165920e-02 -4.692278073235021940e-02 2.266102284778143475e-02 8.363747873214642456e-03 -1.597865324576145177e-02 1.221174172344303456e-02 1.069636293475440848e-02 -1.279741394930316023e-01
