2.089132730844015109e-05 5.531208030518555805e-05 1.185208844126195931e-04 1.350555761845813839e-04 -4.383678190226078443e-05 -4.928368303383513489e-05 7.475688761515716452e-04 1.335358314530223078e-03 -2.591867534539688423e-03 1.397201945735495438e-04 3.534556276451461662e-04 6.461983343449051237e-04 2.355422696323810814e-04 -1.478120465753069877e-03 -2.107631841811438266e-03 -1.551256312549814144e-03 -1.150525515090347443e-02 -4.665661949578014250e-02 1.933928827300086849e-04 4.742687706757950112e-04 7.679452342314268100e-04 -7.213831257196164678e-05 -2.754434223861400820e-03 -4.073220345854657205e-03 -4.590997092435342673e-03 -1.929113343756230434e-02 -5.755007399888344838e-02 1.629366933712041209e-04 3.845337271078872994e-04 5.488476550771520133e-04 -2.377155004422864301e-04 -2.262987041861675309e-03 -2.197858991090653139e-03 1.452799285592259104e-03 2.479407045918351139e-04 -7.842292216001940999e-03 1.581702143442930862e-04 3.665568041608117033e-04 5.156277433973865650e-04 -1.156712151835563552e-04 -1.489626310669534557e-03 5.975410096916767590e-04 1.026610704801583437e-02 2.137671491385518055e-02 2.311537452370242621e-02 5.464147539185584997e-04 1.202613542285922493e-03 1.586060455867092803e-03 -7.878669892971107251e-04 -3.730038859798940568e-03 -2.055850927961265246e-03 -8.531018986335875409e-03 -5.604275429594704483e-02 -1.443724450567261952e-01 1.628012492336988748e-03 3.572987909453269762e-03 4.095894102024052498e-03 -4.278244346239363192e-03 -1.161229009664572348e-02 -2.383115711507862063e-03 -1.701866740538624662e-02 -1.127023656071239888e-01 -2.590129255259892016e-01 1.454107548868613159e-03 3.250570109240385336e-03 3.418676026617822362e-03 -4.062736425397570419e-03 -5.860726263496768805e-03 1.477365156632937625e-02 2.967219099629712573e-02 6.338701606181845749e-02 7.082729488028689790e-02 1.427367313019300065e-03 3.189863838081641225e-03 3.293942677073453517e-03 -3.745930972182652269e-03 -3.216749959015737566e-03 2.630350040981053669e-02 8.356184992142547119e-02 1.904219683186012535e-01 2.874557315829605053e-01 1.744242906600274685e-03 3.497959301495690964e-03 2.402465463358501203e-03 -5.709736736290674242e-03 -6.955462524085354037e-03 1.903157785028408971e-03 -2.131700697217463192e-02 -9.068993665156578621e-02 -1.697948257651175352e-01 3.548793539466411819e-03 6.854402084576397859e-03 2.718659736569240502e-03 -1.288935018996324212e-02 -7.138540197899689334e-03 2.197902236513081184e-02 3.494672581727441968e-02 1.203801565762606558e-02 6.224902326620392230e-03 3.543831087623384134e-03 6.765505977148002920e-03 2.574514502752281615e-03 -1.088723643649637529e-02 4.277103688878596509e-03 5.912926110560828147e-02 1.151709130324800184e-01 2.632013853837997797e-01 3.061838183205413677e-01 2.306150055341380650e-03 3.874319895585366918e-03 -2.738791063319759235e-04 -7.328508653591936720e-03 1.411604276780954606e-03 1.063159498592006202e-02 -2.061146384587613650e-02 -5.226417969079635850e-02 -1.197274114268449818e-01 4.676502093155710492e-03 7.518104088304253078e-03 -2.668391157030383914e-03 -1.565136535415589600e-02 5.407163631607293797e-03 1.907188755918884718e-02 -5.182734165595575399e-02 -1.324531884000294812e-01 -3.392855455297700273e-01 2.675315481619046018e-03 3.635280928782875110e-03 -3.783919055504909000e-03 -1.071879281507140923e-02 -4.119864005591758818e-03 -2.735924046086582462e-02 -1.395326614798518550e-01 -3.064092044208283627e-01 -4.395607306513066304e-01 1.382511316989884541e-04 4.910645677895620438e-04 9.210738845301786031e-04 6.018120255698410212e-04 1.275533686010819792e-04 1.530772696375553481e-03 1.103042208061885470e-03 3.413319946762651078e-03 4.524875425917276525e-03 5.544379711645352560e-04 -2.183083761927295720e-03 3.319280933396430433e-03 1.642382216193525495e-03 4.653446629281216863e-03 5.249444245145426340e-03 -1.690325127312598949e-03 -6.980552843546002258e-03 -3.918081662368801642e-03 1.431969135456665366e-03 3.685781809694381374e-03 3.461004081530596674e-03 -3.352559839289010434e-03 -7.817184595115191093e-03 -3.024217457616884541e-03 1.363988081812097684e-03 3.373260402358076865e-03 2.980606672528912128e-03 -3.564472417879582886e-03 -6.198221407449998506e-03 1.019346997503744502e-02 4.447548766958683147e-03 9.839023959817130849e-03 7.980134837356529440e-03 1.214644282180319008e-03 1.088348509078186817e-02 1.994906996236285590e-02 1.511267801843948350e-02 2.967082481244373224e-02 1.759838850905106819e-02 -3.659814004822002122e-03 2.507133241573849397e-02 2.387774253330119875e-02 1.455003314501051442e-02 2.586908513448160987e-02 1.065478753281853298e-02 -5.439481853087246160e-03 3.233523374212630280e-02 2.401413305675444837e-02 1.447528819922426491e-02 2.478801684614590634e-02 8.756233141576506146e-03 -1.106529586049116720e-02 1.962704101987315305e-02 7.191395530213230691e-02 1.643619485270863753e-02 2.402371665992338035e-02 7.889615038571237346e-03 2.076189966881880535e-03 3.489026883306876881e-02 -8.549706495546031959e-03 3.507399591462574684e-02 4.182026425582604373e-02 2.874687087658085120e-03 -3.115491715187472792e-03 3.894534649654878000e-02 2.720522595395575075e-02 3.576815536627982184e-02 3.941836228896677952e-02 -1.377340322486982549e-03 6.674006911981868184e-03 7.883900218206933708e-02 8.696839952258111905e-02 2.132320449413788871e-02 1.788817037946311556e-02 -3.282917667899733129e-03 1.656252222120803072e-02 4.486880273145997522e-02 -2.864042731353289017e-02 4.333890218335539196e-02 2.824253649360806626e-02 -1.801637050138025706e-02 2.520584357519489380e-02 7.905409482918165920e-02 -4.692278073235021940e-02 2.266102284778143475e-02 8.363747873214642456e-03 -1.597865324576145177e-02 1.221174172344303456e-02 1.069636293475440848e-02 -1.279741394930316023e-01
-1.129679611452105064e-03 6.679663515721906419e-02 -1.186054240519671384e-05 -5.294566845314449969e-06 -1.473788174965557484e-06 -5.750309210460769385e-07 -4.147578547853582950e-07 -1.121199596489119650e-07 1.457516232257936548e-07 -4.306026613158768512e-05 -3.074503792932624938e-05 -1.793365838001241002e-05 -6.527608982868281355e-06 -1.509383181730134968e-06 -8.049706685604270962e-07 -4.878575757236063438e-07 1.044039810051730522e-07 4.614666944405902629e-07 -4.728706574873530317e-05 -3.304837848215297320e-05 -1.840574728881157131e-05 -6.213675254287647863e-06 -1.252758441290627816e-06 -6.409391585546625156e-07 -2.913541524374613342e-07 3.162657923644215734e-07 6.257635429441636948e-07 -5.298736798967554866e-05 -3.600587445562301609e-05 -1.896289924695066507e-05 -5.816068648855527714e-06 -8.702233183060959343e-07 -3.551771001098200419e-07 1.767587237719415863e-08 6.211414251259428900e-07 8.483450173894781629e-07 -5.492496163927268574e-05 -3.667164723859389224e-05 -1.877120426215535384e-05 -5.502036454463575521e-06 -6.112127904423262045e-07 -1.433061815651494560e-07 2.100870700419142967e-07 8.008243173685432247e-07 9.821425563886141496e-07 -1.156269501641671614e-04 -7.625460888265015607e-05 -3.730396927932131415e-05 -9.468780199444292223e-06 -2.764249813362219561e-06 -2.253705225484595085e-06 -5.194973652552072520e-07 1.230822252773515116e-06 1.758831434342011040e-06 -1.426373912441418848e-04 -9.072023748079834429e-05 -4.080406374248370783e-05 -8.579761889422032184e-06 -2.565336905437720121e-06 -2.186340033412723145e-06 1.665667874147403191e-07 2.166804222930363218e-06 2.511399814355819234e-06 -1.713160860127737781e-04 -1.073741527192722113e-04 -4.476490459319404575e-05 -7.634405875216704427e-06 -2.614159041912136607e-06 -2.150660120970679192e-06 1.113198582801793904e-06 3.227404738009063083e-06 3.398094844496897114e-06 -1.806391485706383389e-04 -1.119720278145444278e-04 -4.492669512851311708e-05 -6.197521337795064257e-06 -1.726510376685714735e-06 -1.581254138558977030e-06 1.493054713853224430e-06 3.772090369053656108e-06 3.750796912357267451e-06 -2.042184026474655966e-04 -1.216914534166065585e-04 -4.452563847085500714e-05 -6.759203828003242791e-06 -2.966581146106380251e-06 -1.529044149023290707e-06 2.390228333260292561e-06 4.678489446657563763e-06 4.295171719275578340e-06 -2.696748296741403915e-04 -1.515167582292984165e-04 -4.461118876674480623e-05 -2.375770790315227869e-06 -1.499186626843614702e-06 5.549701359097185328e-07 5.482242967556363755e-06 8.019842241303642765e-06 6.492121858366243016e-06 -2.943387608093525837e-04 -1.604174610288288479e-04 -4.349466950211040839e-05 -1.755534436654102131e-07 -7.468857199962279227e-07 1.608324266228638817e-06 7.555512650684542231e-06 9.627466969333412999e-06 7.524103178452610338e-06 -3.995305188798471750e-04 -2.018772413921111257e-04 -3.839673492692360831e-05 4.476086366810027879e-06 6.241192663828046726e-07 6.415964220448708374e-06 1.451954432291179975e-05 1.567663194539357059e-05 1.111824577045559142e-05 -4.485613171588534237e-04 -2.121346931730787766e-04 -2.541155923122113993e-05 1.252283156295245522e-05 5.606799861547040630e-06 1.254954688146608665e-05 2.091348460373266223e-05 2.056337333278785727e-05 1.367103595895506888e-05 -5.178932463086002077e-04 -2.150127399404811140e-04 1.655992119359334674e-06 2.732439934792665990e-05 1.724843831407825797e-05 2.637055995990692379e-05 3.390987043332164907e-05 2.946898904954228131e-05 1.764169986545117193e-05 -2.468260299195320954e-06 -2.404820287470615574e-06 -1.409848491708349587e-06 -4.826076295432490080e-07 -1.721843714655768452e-07 -1.379215877621036203e-07 -4.742663453742723186e-06 -4.111858657351432938e-06 -1.950668286308321858e-06 -5.715569290082800593e-07 -2.675621995792921634e-07 -2.390848434583440723e-07 -5.403664701303661518e-06 -4.409772622508225389e-06 -1.985254347395751539e-06 -5.679533793131461503e-07 -2.804252947201579525e-07 -2.438025760833483861e-07 -6.247240856571516063e-06 -4.787716097531774242e-06 -2.046531044908820372e-06 -5.689675633227537976e-07 -2.928324748692926391e-07 -2.429044283081109410e-07 -6.529619159671187068e-06 -4.873569368440085359e-06 -2.050675970213051639e-06 -5.603734050583951376e-07 -2.850090364699503230e-07 -2.474319023001378698e-07 -1.481220703210615136e-05 -9.775204569467291110e-06 -3.322270225283334882e-06 -1.012996052793293105e-06 -8.311503810542191946e-07 -6.600211826943825783e-07 -1.900789525703296546e-05 -1.134167669432885263e-05 -3.452085222277161379e-06 -1.124221380398389050e-06 -1.031841247659828109e-06 -7.566514670703263037e-07 -2.363875020153993081e-05 -1.305492652452021144e-05 -3.579737675553429922e-06 -1.303853525115670178e-06 -1.322026988388565637e-06 -8.382939597621510202e-07 -2.530176881796223579e-05 -1.360953827315601428e-05 -3.582468381543954792e-06 -1.214683567972251089e-06 -1.277341517444090665e-06 -8.615265306636456802e-07 -2.845267401046945433e-05 -1.374680605338906942e-05 -3.658189928241663019e-06 -1.632380804989249423e-06 -1.559197914601883073e-06 -9.047609021545465077e-07 -3.874099804121753981e-05 -1.609189330259866308e-05 -3.707840409706050919e-06 -1.990022072512283859e-06 -1.908777040509616929e-06 -9.868503091299906342e-07 -4.246373271681563025e-05 -1.669733005273055782e-05 -3.578454303757632918e-06 -2.243692174149001983e-06 -2.159830967670952001e-06 -8.961998868270250775e-07 -5.716725991773445381e-05 -1.872213347079970449e-05 -3.892053924931802854e-06 -3.431042701341668157e-06 -2.902052454118254936e-06 -7.447655113924874198e-07 -6.424715020962584863e-05 -1.860265028177271359e-05 -3.567394933588759973e-06 -3.730757600783051744e-06 -3.003633339857079445e-06 -2.966414151988440937e-07 -7.278508751332289780e-05 -1.740822815795070301e-05 -3.279412657152260907e-06 -4.299603936618787397e-06 -2.715471344532550691e-06 9.119164844336162629e-07
-7.174502123404608717e-04 -1.186054240519671554e-05 6.680777794535890102e-02 -3.362535774668768466e-06 -9.359907254719265656e-07 -3.651973995321856681e-07 -2.634092958472813772e-07 -7.120646247152901839e-08 9.256565487439175285e-08 -2.734722019089404609e-05 -1.952592024074592035e-05 -1.138951865851806959e-05 -4.145630675598771990e-06 -9.585968209547684704e-07 -5.112302384072960795e-07 -3.098343262519289711e-07 6.630610801682738778e-08 2.930736950177212790e-07 -3.003162579767055452e-05 -2.098875284564151613e-05 -1.168933843434474359e-05 -3.946253951483611928e-06 -7.956165629650933483e-07 -4.070551780705966210e-07 -1.850366213689906793e-07 2.008577986073518652e-07 3.974172696479118208e-07 -3.365184077872208939e-05 -2.286703416775432237e-05 -1.204318105186262273e-05 -3.693737272769225339e-06 -5.526716585597148361e-07 -2.255700495158163767e-07 1.122580089236079527e-08 3.944818007091720757e-07 5.387769299312151991e-07 -3.488239053923879515e-05 -2.328986097605527513e-05 -1.192143714664226588e-05 -3.494298013828683713e-06 -3.881762066364815478e-07 -9.101257502687625213e-08 1.334245670042767318e-07 5.085969249324858135e-07 6.237506444184321223e-07 -7.343372324913268899e-05 -4.842867374093140357e-05 -2.369144349360138491e-05 -6.013544279128984806e-06 -1.755552278233611553e-06 -1.431309617510328679e-06 -3.299284958622627952e-07 7.816850703985301833e-07 1.117019350661488849e-06 -9.058783180503361654e-05 -5.761567526257449745e-05 -2.591432464534641249e-05 -5.448936076206601964e-06 -1.629224329511717439e-06 -1.388526539134509201e-06 1.057851941277072828e-07 1.376119506877996102e-06 1.594969327423121321e-06 -1.088014345316988622e-04 -6.819243959736190320e-05 -2.842982203113718215e-05 -4.848548261596831995e-06 -1.660230866077833172e-06 -1.365866520755556370e-06 7.069832468531794063e-07 2.049698154343810161e-06 2.158102034437475261e-06 -1.147224347374168729e-04 -7.111251218252410088e-05 -2.853257386691665065e-05 -3.935994732232203113e-06 -1.096492513279011016e-06 -1.004241473398910637e-06 9.482267455575278982e-07 2.395623510250181697e-06 2.382100211366661134e-06 -1.296974247016104565e-04 -7.728523929146372201e-05 -2.827786608846298539e-05 -4.292714653334241848e-06 -1.884051240389644934e-06 -9.710833392704897277e-07 1.518014318268049895e-06 2.971270095441023669e-06 2.727828165431713585e-06 -1.712682621260112729e-04 -9.622704460870694517e-05 -2.833219837642295702e-05 -1.508832451878052501e-06 -9.521210729689554547e-07 3.524569601988633295e-07 3.481727333398076259e-06 5.093335721589450534e-06 4.123093095251886853e-06 -1.869321215519266510e-04 -1.018798076122757524e-04 -2.762310619190129046e-05 -1.114925454598130084e-07 -4.743409662112595541e-07 1.021433488416086733e-06 4.798443824799865309e-06 6.114324939059836945e-06 4.778495927808668511e-06 -2.537385402914246529e-04 -1.282105724801932357e-04 -2.438544995168276272e-05 2.842725567290853755e-06 3.963730031531159053e-07 4.074726006971832058e-06 9.221242954159003833e-06 9.956099768454320799e-06 7.061106271196068244e-06 -2.848775962502005836e-04 -1.347249955818615190e-04 -1.613867186901493200e-05 7.953147133810143721e-06 3.560832390386057114e-06 7.970113812456056787e-06 1.328198173855693993e-05 1.305962895539990075e-05 8.682362284168950104e-06 -3.289097331376852765e-04 -1.365528193678856232e-04 1.051706949142240055e-06 1.735350086476857961e-05 1.095434104105848042e-05 1.674772532935477599e-05 2.153587928488129432e-05 1.871551211221377978e-05 1.120409821174438905e-05 -1.567571776827001396e-06 -1.527281548145025334e-06 -8.953831595170986183e-07 -3.065001286938871002e-07 -1.093528754678462041e-07 -8.759286387320095971e-08 -3.012026478528086755e-06 -2.611407550357318058e-06 -1.238853354553122993e-06 -3.629910958156986557e-07 -1.699265481614674671e-07 -1.518408139508563956e-07 -3.431822924009045942e-06 -2.800610254729566475e-06 -1.260818676950417816e-06 -3.607025110986302074e-07 -1.780957938897382298e-07 -1.548370070654901235e-07 -3.967571188903646107e-06 -3.040639041351456638e-06 -1.299735002602930061e-06 -3.613466110059570021e-07 -1.859754917636344311e-07 -1.542666008144390061e-07 -4.146907322321848950e-06 -3.095163746249082763e-06 -1.302367410508241748e-06 -3.558885319106585260e-07 -1.810068905036490980e-07 -1.571419622390559775e-07 -9.407110629141403275e-06 -6.208151871503517596e-06 -2.109946443592140330e-06 -6.433454457431447211e-07 -5.278567580835606559e-07 -4.191740143602328585e-07 -1.207175764708551515e-05 -7.203005409811347382e-06 -2.192390878469104331e-06 -7.139837347756777642e-07 -6.553138737129240505e-07 -4.805431117053869058e-07 -1.501277546273302295e-05 -8.291076259282601188e-06 -2.273461899651044648e-06 -8.280666296638357385e-07 -8.396084464337609266e-07 -5.323935860557754285e-07 -1.606894488225955162e-05 -8.643305610677018744e-06 -2.275196148523805010e-06 -7.714355246687642165e-07 -8.112290720583684721e-07 -5.471484003920866200e-07 -1.807005880563393086e-05 -8.730483246776087259e-06 -2.323286278863669355e-06 -1.036711597949984925e-06 -9.902337473135427784e-07 -5.746061934620010870e-07 -2.460408861874137029e-05 -1.021982883453936872e-05 -2.354818890507109317e-06 -1.263846619884468093e-06 -1.212248569542570888e-06 -6.267404993912108714e-07 -2.696836673478337316e-05 -1.060433672557096837e-05 -2.272646840798895784e-06 -1.424950411117586298e-06 -1.371690849924421138e-06 -5.691691631727803631e-07 -3.630645569869153086e-05 -1.189027269141006606e-05 -2.471811376053354147e-06 -2.179026946819543694e-06 -1.843069599843417096e-06 -4.729944391981674454e-07 -4.080283568269020957e-05 -1.181438990263569984e-05 -2.265623125937112242e-06 -2.369373409715707396e-06 -1.907582783319722826e-06 -1.883945183801422580e-07 -4.622520930914977047e-05 -1.105582225418648334e-05 -2.082727955231081450e-06 -2.730643030143609121e-06 -1.724573474628840958e-06 5.791506448033324013e-07
-3.202710278880044705e-04 -5.294566845314451663e-06 -3.362535774668768466e-06 6.681380943626324953e-02 -4.178278946529587073e-07 -1.630247570052928021e-07 -1.175863697371528886e-07 -3.178668921656558767e-08 4.132147001118925312e-08 -1.220784685789587823e-05 -8.716404899459827269e-06 -5.084301022106579900e-06 -1.850616774349769955e-06 -4.279192951603272101e-07 -2.282140713402372538e-07 -1.383105843957898029e-07 2.959916242902302281e-08 1.308286093387050474e-07 -1.340617020934629365e-05 -9.369415929270040987e-06 -5.218141093701112834e-06 -1.761614656473186709e-06 -3.551646233322627024e-07 -1.817101424536752036e-07 -8.260067096425618632e-08 8.966327211674381905e-08 1.774077633002087358e-07 -1.502224049995862487e-05 -1.020788399206914127e-05 -5.376097056182945974e-06 -1.648890770049213439e-06 -2.467135936779008237e-07 -1.006948640847233049e-07 5.011217125344366356e-09 1.760973648388624827e-07 2.405109625495923217e-07 -1.557156006233266572e-05 -1.039663461780439099e-05 -5.321750364254557503e-06 -1.559860736517356252e-06 -1.732825366314568037e-07 -4.062817245464760141e-08 5.956095975018467900e-08 2.270385556057341182e-07 2.784433771118564363e-07 -3.278094231782365306e-05 -2.161864454351936196e-05 -1.057590175504138047e-05 -2.684456669465332086e-06 -7.836816032527618098e-07 -6.389391131833490043e-07 -1.472806568063385496e-07 3.489455807177907727e-07 4.986393891223481164e-07 -4.043856633856012921e-05 -2.571973806880642875e-05 -1.156819978366669138e-05 -2.432414581535556541e-06 -7.272885862987930978e-07 -6.198406722714178637e-07 4.722269542312913881e-08 6.143021514019759583e-07 7.119970935366245545e-07 -4.856915040763933468e-05 -3.044122414124216612e-05 -1.269112221025381789e-05 -2.164400412455827172e-06 -7.411299583779533270e-07 -6.097252004890436832e-07 3.155985562128701231e-07 9.149888361038213336e-07 9.633805175159532957e-07 -5.121229524109643309e-05 -3.174474964346012026e-05 -1.273699080921222600e-05 -1.757034923080595418e-06 -4.894761730626163819e-07 -4.482951477343855945e-07 4.232900753906154190e-07 1.069410519173980801e-06 1.063373694932570707e-06 -5.789715691644415805e-05 -3.450026580618179836e-05 -1.262328881203766288e-05 -1.916275318907898843e-06 -8.410437643956246460e-07 -4.334932987454299142e-07 6.776442430401086621e-07 1.326380160228045563e-06 1.217707257475983142e-06 -7.645445135036083723e-05 -4.295592078357435138e-05 -1.264754284027981988e-05 -6.735454418465570988e-07 -4.250285099489126733e-07 1.573374026344342457e-07 1.554249162817170710e-06 2.273673962142542651e-06 1.840555959118761025e-06 -8.344682555660121669e-05 -4.547932406148869907e-05 -1.233100285060826298e-05 -4.977046702624638950e-08 -2.117466358010886588e-07 4.559696932656427381e-07 2.142033704357204660e-06 2.729445332082060744e-06 2.133128928299318858e-06 -1.132693275660676027e-04 -5.723342348786600997e-05 -1.088570745008124692e-05 1.268997658345814775e-06 1.769416009130149630e-07 1.818964806432542133e-06 4.116378960568287114e-06 4.444420325971326665e-06 3.152090172396848693e-06 -1.271698565335699024e-04 -6.014147333854832141e-05 -7.204331310147891177e-06 3.550298771507190633e-06 1.589561798421573074e-06 3.557872726488743745e-06 5.929099846413746145e-06 5.829841175650860577e-06 3.875821688275237555e-06 -1.468258793467152126e-04 -6.095741706910822556e-05 4.694838190094529165e-07 7.746633095673796036e-06 4.890036973590979073e-06 7.476213838616949259e-06 9.613654127358237442e-06 8.354637295423473164e-06 5.001529010811279986e-06 -6.997667790979286961e-07 -6.817811506433428022e-07 -3.997006062855101767e-07 -1.368221927823672633e-07 -4.881531460468276381e-08 -3.910160742277619873e-08 -1.344573880823247966e-06 -1.165736891566416020e-06 -5.530263012549605683e-07 -1.620398591727208492e-07 -7.585550789314960258e-08 -6.778200455297225684e-08 -1.531971747302818736e-06 -1.250197309259811254e-06 -5.628316595377659724e-07 -1.610182309577772179e-07 -7.950227345466201122e-08 -6.911951039249847998e-08 -1.771130708490197110e-06 -1.357346578842329680e-06 -5.802039752803388820e-07 -1.613057582813933953e-07 -8.301978434825707570e-08 -6.886488004575718604e-08 -1.851186671676743739e-06 -1.381686502341531304e-06 -5.813790867670360870e-07 -1.588692622401660167e-07 -8.080179206763593592e-08 -7.014844640781517321e-08 -4.199350615317087717e-06 -2.771329838603129462e-06 -9.418837776539950422e-07 -2.871905306475068022e-07 -2.356361787636168418e-07 -1.871200121401398421e-07 -5.388853698202354210e-06 -3.215434195715879859e-06 -9.786871173806002871e-07 -3.187235862485323007e-07 -2.925332577972839450e-07 -2.145152843823403062e-07 -6.701729187891912809e-06 -3.701150923345427856e-06 -1.014877362834940975e-06 -3.696503897838986711e-07 -3.748026769489414007e-07 -2.376614266944415069e-07 -7.173205061475067566e-06 -3.858386721012015784e-06 -1.015651534560781999e-06 -3.443701656021569090e-07 -3.621340746603239455e-07 -2.442480015849436237e-07 -8.066505812016869602e-06 -3.897302970031181313e-06 -1.037119052738764839e-06 -4.627898680463354827e-07 -4.420420743439696631e-07 -2.565052083691608802e-07 -1.098330813293071197e-05 -4.562149441701128984e-06 -1.051195265651285611e-06 -5.641833385521339256e-07 -5.411498787583071783e-07 -2.797780535937884257e-07 -1.203872601338226836e-05 -4.733794435839483905e-06 -1.014513519139759169e-06 -6.361003523426328125e-07 -6.123251912028036727e-07 -2.540781085517305027e-07 -1.620726523678592664e-05 -5.307838497007037595e-06 -1.103420915538316173e-06 -9.727214349507805650e-07 -8.227494884772160606e-07 -2.111455437905989935e-07 -1.821445711502449135e-05 -5.273964287561208851e-06 -1.011378120557831974e-06 -1.057692428446941074e-06 -8.515482862598266698e-07 -8.409964205494034735e-08 -2.063501417259896829e-05 -4.935338364378503272e-06 -9.297333969097806038e-07 -1.218963817999818878e-06 -7.698526112159844780e-07 2.585338593852742551e-07
-8.915019254183616530e-05 -1.473788174965557696e-06 -9.359907254719264598e-07 -4.178278946529586543e-07 6.681519417212140877e-02 -4.537934190285294630e-08 -3.273117637736642638e-08 -8.848098070598120616e-09 1.150218623239759326e-08 -3.398159068834805276e-06 -2.426286199484709078e-06 -1.415258876366296150e-06 -5.151350805672207341e-07 -1.191150127049591668e-07 -6.352534768725018353e-08 -3.849993960043853931e-08 8.239181192958972500e-09 3.641726755441890757e-08 -3.731722670305933541e-06 -2.608057430630477556e-06 -1.452514410315618066e-06 -4.903605763054638274e-07 -9.886312465700820249e-08 -5.058057949660816713e-08 -2.299260650926990024e-08 2.495854222547412050e-08 4.938297529104248096e-08 -4.181569721783881217e-06 -2.841452220448491798e-06 -1.496482809709242699e-06 -4.589829139392149374e-07 -6.867484868710780875e-08 -2.802928063872907852e-08 1.394915345729059437e-09 4.901821461972632020e-08 6.694829301642735940e-08 -4.334477541999726219e-06 -2.893992578961886932e-06 -1.481354941036957149e-06 -4.342006391149473461e-07 -4.823468300178004271e-08 -1.130920090037409746e-08 1.657930492408549966e-08 6.319813278193081242e-08 7.750710654415342838e-08 -9.124856964454327121e-06 -6.017735466919056697e-06 -2.943893126964905354e-06 -7.472415801429853822e-07 -2.181445080505682781e-07 -1.778541922397191987e-07 -4.099683633127326923e-08 9.713200070813845574e-08 1.388005585217840593e-07 -1.125642240877035814e-05 -7.159310088333988020e-06 -3.220107809554820709e-06 -6.770834992957746001e-07 -2.024470272243619331e-07 -1.725379771085055844e-07 1.314484303209783790e-08 1.709962822347489033e-07 1.981905088218415452e-07 -1.351964034645239918e-05 -8.473576305971492986e-06 -3.532682915707710465e-06 -6.024794524203469323e-07 -2.062998920746032140e-07 -1.697222486206777013e-07 8.784956990284377023e-08 2.546950045722241784e-07 2.681652448988745445e-07 -1.425538242207048998e-05 -8.836423830058378411e-06 -3.545450834353778062e-06 -4.890857681642710767e-07 -1.362498985966122023e-07 -1.247868063484871971e-07 1.178264296054832053e-07 2.976796069233091670e-07 2.959992050242927245e-07 -1.611617110908588414e-05 -9.603445430728054546e-06 -3.513800906455684068e-06 -5.334117006161024729e-07 -2.341117584891259462e-07 -1.206665844975053352e-07 1.886280977092251812e-07 3.692093145226721704e-07 3.389592782695819342e-07 -2.128175346834236339e-05 -1.195714964891130405e-05 -3.520552223619656931e-06 -1.874871611780457349e-07 -1.183103378022863773e-07 4.379621794512488504e-08 4.326386093580466219e-07 6.328966839087573441e-07 5.123345662001017685e-07 -2.322814091063354249e-05 -1.265956063366460293e-05 -3.432440597624319760e-06 -1.385403714955622979e-08 -5.894149550846758552e-08 1.269230820406547598e-07 5.962534870351278910e-07 7.597645609474918948e-07 5.937747661051158157e-07 -3.152949059485455187e-05 -1.593141520611083674e-05 -3.030130204185077005e-06 3.532364020645336169e-07 4.925321498506619712e-08 5.063244833278861428e-07 1.145829453665580820e-06 1.237142586421361922e-06 8.774113838254354673e-07 -3.539882227327146772e-05 -1.674089586947025769e-05 -2.005387523405512842e-06 9.882561689956880294e-07 4.424681849023979268e-07 9.903644444440208741e-07 1.650415888047156803e-06 1.622786384160054393e-06 1.078868269934145567e-06 -4.087024511771121684e-05 -1.696802081786914096e-05 1.306848550615867981e-07 2.156341885135422999e-06 1.361183809247897549e-06 2.081068361355843382e-06 2.676043231685351398e-06 2.325585078412597472e-06 1.392218575803638524e-06 -1.947860957088383392e-07 -1.897796414869692378e-07 -1.112600981875341962e-07 -3.808563300583556717e-08 -1.358816226586561226e-08 -1.088426840674073575e-08 -3.742736929799138627e-07 -3.244928803632195672e-07 -1.539396228335076502e-07 -4.510518712842067282e-08 -2.111503241060521105e-08 -1.886770338427923925e-08 -4.264374993309058938e-07 -3.480031633544213277e-07 -1.566690285640799572e-07 -4.482080813644939755e-08 -2.213014093948986769e-08 -1.924000962723196895e-08 -4.930094511510875556e-07 -3.778290832229490753e-07 -1.615047619226699678e-07 -4.490084383755685791e-08 -2.310927032093883360e-08 -1.916913108230495388e-08 -5.152937163850273334e-07 -3.846043100697751930e-07 -1.618318643021390867e-07 -4.422262422888590898e-08 -2.249187311152647538e-08 -1.952642280822937976e-08 -1.168925326698957306e-06 -7.714234732303063066e-07 -2.621814426475341613e-07 -7.994195189072945433e-08 -6.559135506301526642e-08 -5.208646320814767883e-08 -1.500033730626807766e-06 -8.950437369998878241e-07 -2.724259684931776247e-07 -8.871944886509483868e-08 -8.142914590025969431e-08 -5.971217263067540178e-08 -1.865483904066193533e-06 -1.030247161657165829e-06 -2.824998342801229295e-07 -1.028953622177875353e-07 -1.043295456212111303e-07 -6.615510022650570700e-08 -1.996723264635101476e-06 -1.074015096986449836e-06 -2.827153316320823330e-07 -9.585839459644162173e-08 -1.008031313191933463e-07 -6.798852994243000608e-08 -2.245381204236235087e-06 -1.084847769288853200e-06 -2.886909997766007784e-07 -1.288215362932209933e-07 -1.230462096407239572e-07 -7.140042877088159649e-08 -3.057298192890215686e-06 -1.269913497372327573e-06 -2.926092345906781594e-07 -1.570452800320329044e-07 -1.506337185833889729e-07 -7.787862521110854434e-08 -3.351082828593372364e-06 -1.317692356350566726e-06 -2.823985552612416768e-07 -1.770639987676497300e-07 -1.704459783762762974e-07 -7.072482468184160717e-08 -4.511431539606302659e-06 -1.477482453250873183e-06 -3.071466929856954288e-07 -2.707653695287035311e-07 -2.290193895936480992e-07 -5.877417638246392724e-08 -5.070150645712746645e-06 -1.468053275987439446e-06 -2.815257901250459735e-07 -2.944177756817283141e-07 -2.370357824101438971e-07 -2.340985799227282638e-08 -5.743933501328165602e-06 -1.373793840625862244e-06 -2.587992797652202515e-07 -3.393090526883895404e-07 -2.142950892914998303e-07 7.196512121240315816e-08
-3.478391141926836036e-05 -5.750309210460769385e-07 -3.651973995321856152e-07 -1.630247570052927757e-07 -4.537934190285293968e-08 6.681529277235621900e-02 -1.277078946547964016e-08 -3.452280368012151179e-09 4.487831328551448478e-09 -1.325866615301634153e-06 -9.466690069240670867e-07 -5.521944259150850378e-07 -2.009912990709377146e-07 -4.647534607050876494e-08 -2.478581373556306167e-08 -1.502159951118883225e-08 3.214698034989616927e-09 1.420899913536645427e-08 -1.456013802149480987e-06 -1.017591056809474197e-06 -5.667304931497421718e-07 -1.913249805008142200e-07 -3.857362584032205882e-08 -1.973512727882935140e-08 -8.971071910374417668e-09 9.738125035653232455e-09 1.926785561722086589e-08 -1.631531538507537503e-06 -1.108655175273815043e-06 -5.838857327083908578e-07 -1.790822943419579438e-07 -2.679500498378638417e-08 -1.093624126976322031e-08 5.442569493099870261e-10 1.912553620636440677e-08 2.612135125632863619e-08 -1.691191892815862796e-06 -1.129154953506026049e-06 -5.779832615094399874e-07 -1.694129439157010229e-07 -1.881982408600023047e-08 -4.412533850184552938e-09 6.468781024805984773e-09 2.465814363236780662e-08 3.024110494355305239e-08 -3.560263946890810051e-06 -2.347952051002836323e-06 -1.148624751517907920e-06 -2.915527627188272584e-07 -8.511388509979944356e-08 -6.939373087173928946e-08 -1.599581877232680652e-08 3.789818969849879510e-08 5.415609540384365616e-08 -4.391941159081552492e-06 -2.793362536136085010e-06 -1.256395994383145852e-06 -2.641790420351614952e-07 -7.898916717158868237e-08 -6.731949243279110736e-08 5.128750063373231324e-09 6.671796621736396506e-08 7.732839275432339971e-08 -5.274985491598143635e-06 -3.306152451583398382e-06 -1.378354057448329355e-06 -2.350706297699155525e-07 -8.049244726375802349e-08 -6.622087393844120629e-08 3.427644484656997552e-08 9.937486645149904590e-08 1.046305774371885712e-07 -5.562051469315674463e-06 -3.447725405905580477e-06 -1.383335742159608334e-06 -1.908275860230737336e-07 -5.316089924814022718e-08 -4.868832129871442613e-08 4.597257698935950424e-08 1.161462559229347343e-07 1.154906101061662756e-07 -6.288079164979327001e-06 -3.746995779346883196e-06 -1.370986825606041744e-06 -2.081223249801144756e-07 -9.134385958474994153e-08 -4.708072598337024370e-08 7.359740741809113618e-08 1.440551469981257071e-07 1.322524290066489503e-07 -8.303544909812050862e-06 -4.665345327431417417e-06 -1.373621000715476464e-06 -7.315224589791909430e-08 -4.616138443186458108e-08 1.708805917370617452e-08 1.688034835976787408e-07 2.469385826654264936e-07 1.998986167009188561e-07 -9.062970845414615320e-06 -4.939406445831292605e-06 -1.339242308911852542e-06 -5.405457770416742958e-09 -2.299732283498569439e-08 4.952183631786171209e-08 2.326414322294024928e-07 2.964388795357341343e-07 2.316743046573317443e-07 -1.230192528671668510e-05 -6.215992579633420286e-06 -1.182272046824369226e-06 1.378229633515128506e-07 1.921722677548619364e-08 1.975536504783107679e-07 4.470706016612191199e-07 4.826984318501719196e-07 3.423413790039697851e-07 -1.381163027462977954e-05 -6.531829291670708991e-06 -7.824461169022015940e-07 3.855899136253677626e-07 1.726387090220463798e-07 3.864125037325940358e-07 6.439461140574115535e-07 6.331658544935715443e-07 4.209442208084736959e-07 -1.594642642180626476e-05 -6.620447093393405098e-06 5.098957492625662555e-08 8.413442863514858753e-07 5.310958473140945943e-07 8.119746629248579189e-07 1.044117214681213609e-06 9.073782462950353990e-07 5.432047451191775364e-07 -7.600008598592548868e-08 -7.404670758916661472e-08 -4.341057814359915179e-08 -1.485994866696518458e-08 -5.301720827856996661e-09 -4.246737077387058018e-09 -1.460311258112693858e-07 -1.266080451978909267e-07 -6.006293482813857906e-08 -1.759878233452207454e-08 -8.238495016607003748e-09 -7.361650092856676824e-09 -1.663839839226333980e-07 -1.357810999910606877e-07 -6.112787259722882477e-08 -1.748782560650841735e-08 -8.634561969946422579e-09 -7.506913574700882375e-09 -1.923584973712087057e-07 -1.474183396326712115e-07 -6.301464048854282557e-08 -1.751905329832068938e-08 -9.016590866365700638e-09 -7.479258749086110277e-09 -2.010531943296823319e-07 -1.500618436315532416e-07 -6.314226668729888772e-08 -1.725443097818660396e-08 -8.775699745097232395e-09 -7.618663986372170319e-09 -4.560819652807271263e-07 -3.009878609852147424e-07 -1.022958651777240873e-07 -3.119111349025555360e-08 -2.559191202319652686e-08 -2.032268098046974325e-08 -5.852712027240101650e-07 -3.492210300001871186e-07 -1.062929926026597416e-07 -3.461584728537263737e-08 -3.177137499296055816e-08 -2.329801949067887474e-08 -7.278596380221897928e-07 -4.019736243891842259e-07 -1.102235332463971544e-07 -4.014689214672713083e-08 -4.070647039374280722e-08 -2.581186961690212018e-08 -7.790655654867665478e-07 -4.190506484773110117e-07 -1.103076142852364791e-07 -3.740126421904442413e-08 -3.933056217401053375e-08 -2.652722260733158439e-08 -8.760849380554202669e-07 -4.232772541980327104e-07 -1.126391528437463957e-07 -5.026256006362151505e-08 -4.800918915134306987e-08 -2.785845009250692148e-08 -1.192872236073716985e-06 -4.954847246348138426e-07 -1.141679384672749439e-07 -6.127467539551223765e-08 -5.877306346254676236e-08 -3.038606113527307528e-08 -1.307498783176742855e-06 -5.141266989371449162e-07 -1.101840170062079686e-07 -6.908541948224174178e-08 -6.650325304489593705e-08 -2.759484827497147960e-08 -1.760234392922008205e-06 -5.764723250965978505e-07 -1.198400480910010196e-07 -1.056450733370217083e-07 -8.935695968555549364e-08 -2.293203959227223307e-08 -1.978230959625318405e-06 -5.727933238814974139e-07 -1.098434884630642398e-07 -1.148735806124635030e-07 -9.248473192788908543e-08 -9.133871767677262201e-09 -2.241122182822060954e-06 -5.360159288297847132e-07 -1.009762398269573371e-07 -1.323889012009722450e-07 -8.361194957601162163e-08 2.807877728760297764e-08
-2.508891253196392378e-05 -4.147578547853583480e-07 -2.634092958472813772e-07 -1.175863697371528754e-07 -3.273117637736642638e-08 -1.277078946547964016e-08 6.681530126680099158e-02 -2.490058094527395604e-09 3.236979484655179633e-09 -9.563200394400452749e-07 -6.828126838628731013e-07 -3.982863653668137035e-07 -1.449708476224789369e-07 -3.352170140963040870e-08 -1.787749242313852144e-08 -1.083476759366516908e-08 2.318694894440576069e-09 1.024865582760440087e-08 -1.050192500985529424e-06 -7.339672847562301633e-07 -4.087709286182896930e-07 -1.379987328942432263e-07 -2.782235479740936613e-08 -1.423453723008990193e-08 -6.470647759086216611e-09 7.023907239756045520e-09 1.389750389000766362e-08 -1.176789797138263566e-06 -7.996499411836108437e-07 -4.211446464432898124e-07 -1.291683377585862306e-07 -1.932668032150520430e-08 -7.888083583767208546e-09 3.925612284243506310e-10 1.379485185621136080e-08 1.884078788573800333e-08 -1.219821571018598046e-06 -8.144360052576958440e-07 -4.168873166149116951e-07 -1.221940362155204267e-07 -1.357434805618359091e-08 -3.182668978115136354e-09 4.665797338417870975e-09 1.778540663056034061e-08 2.181228061598781022e-08 -2.567944406182224262e-06 -1.693529026302198286e-06 -8.284791660008124204e-07 -2.102909495754156999e-07 -6.139087674141195928e-08 -5.005225614573312965e-08 -1.153745170342591184e-08 2.733517674319709676e-08 3.906166630550561537e-08 -3.167815897917987142e-06 -2.014794354046145742e-06 -9.062123241012900256e-07 -1.905468536447186662e-07 -5.697324496528253357e-08 -4.855615106031192220e-08 3.699260850434340717e-09 4.812228270023511269e-08 5.577536288733396531e-08 -3.804737426187599370e-06 -2.384659064798718995e-06 -9.941781408241091142e-07 -1.695515607213771982e-07 -5.805752965911332932e-08 -4.776374036852657845e-08 2.472288743772243655e-08 7.167702626151920121e-08 7.546786138709978419e-08 -4.011792150972467485e-06 -2.486772695007465121e-06 -9.977713264919480134e-07 -1.376399725928068455e-07 -3.834385199757361613e-08 -3.511787445833186048e-08 3.315906451843415178e-08 8.377388099463192676e-08 8.330097729065860994e-08 -4.535460841728115202e-06 -2.702630196832800700e-06 -9.888643095799475663e-07 -1.501143084352096533e-07 -6.588442788479217720e-08 -3.395834936159064344e-08 5.308428069043880712e-08 1.039039842084326896e-07 9.539092896980980440e-08 -5.989174404121418873e-06 -3.365016643484639103e-06 -9.907642853508688319e-07 -5.276319493594813615e-08 -3.329524740348398297e-08 1.232526200928198092e-08 1.217544451521044252e-07 1.781116685407641907e-07 1.441827185338268424e-07 -6.536932551363112079e-06 -3.562691233471600483e-06 -9.659676493076125169e-07 -3.898844369816501953e-09 -1.658749109959724008e-08 3.571907152203759869e-08 1.677994310116910211e-07 2.138152041068491148e-07 1.671018619898962589e-07 -8.873123087653091422e-06 -4.483466285604977112e-06 -8.527482609483502082e-07 9.940883964264954700e-08 1.386098635848094282e-08 1.424913431235032820e-07 3.224627353000181288e-07 3.481603489047706906e-07 2.469237231654371771e-07 -9.962041925280984561e-06 -4.711272743227714661e-06 -5.643621256768674013e-07 2.781179925267259296e-07 1.245207135585672727e-07 2.787113096784717721e-07 4.644649515159178465e-07 4.566893742954899326e-07 3.036183196708946215e-07 -1.150182602731889796e-05 -4.775190922221352932e-06 3.677772088213825117e-08 6.068441514558119567e-07 3.830683990291984607e-07 5.856604523494714637e-07 7.531000512421891794e-07 6.544730746437083964e-07 3.918022954052663694e-07 -5.481728281616950618e-08 -5.340835156782911670e-08 -3.131114798675083881e-08 -1.071817219866888844e-08 -3.824021068697665962e-09 -3.063083210986773287e-09 -1.053292166674974774e-07 -9.131975221318092145e-08 -4.332214684405709151e-08 -1.269363601286400102e-08 -5.942255267824085200e-09 -5.309805244280089931e-09 -1.200093103112681827e-07 -9.793608602862589394e-08 -4.409026432856430310e-08 -1.261360523051715072e-08 -6.227930131394191394e-09 -5.414580775305015375e-09 -1.387441871374159069e-07 -1.063297851719642327e-07 -4.545115080342672762e-08 -1.263612911574125988e-08 -6.503479636204526854e-09 -5.394633924228588755e-09 -1.450154913864901087e-07 -1.082364896769989621e-07 -4.554320492864521205e-08 -1.244526253481466141e-08 -6.329729875909211887e-09 -5.495184025182165108e-09 -3.289624446316811471e-07 -2.170962899030923836e-07 -7.378388194732462533e-08 -2.249750204050058665e-08 -1.845891436809548750e-08 -1.465832750630713286e-08 -4.221439571768801738e-07 -2.518858724767685039e-07 -7.666692690263615090e-08 -2.496769136438889842e-08 -2.291603260515029648e-08 -1.680437734917414268e-08 -5.249900327129382100e-07 -2.899352226636072146e-07 -7.950194419627585243e-08 -2.895711909332514123e-08 -2.936073125542342808e-08 -1.861756520993738596e-08 -5.619238041853782693e-07 -3.022525252949587867e-07 -7.956259010247109869e-08 -2.697675472047918559e-08 -2.836831724652185345e-08 -1.913353445761727379e-08 -6.319018616539989178e-07 -3.053010881766922807e-07 -8.124428041769404131e-08 -3.625334016835842882e-08 -3.462803055211703950e-08 -2.009372118110372555e-08 -8.603939571926152370e-07 -3.573828362040069907e-07 -8.234696172131492121e-08 -4.419615013655138150e-08 -4.239178943028759769e-08 -2.191683450503134477e-08 -9.430717037934703660e-07 -3.708289049067699862e-07 -7.947344195333519629e-08 -4.982987754688966196e-08 -4.796741455045806047e-08 -1.990359066749651121e-08 -1.269620491711331060e-06 -4.157975095760702517e-07 -8.643813653216564107e-08 -7.619959619944324895e-08 -6.445131827328819374e-08 -1.654040365314825438e-08 -1.426856885524652879e-06 -4.131439224455696036e-07 -7.922782579100682671e-08 -8.285592673810413353e-08 -6.670731539971665523e-08 -6.588071913341183093e-09 -1.616474862200802689e-06 -3.866171515921119683e-07 -7.283206360230639168e-08 -9.548936352782002690e-08 -6.030756185681596153e-08 2.025263860874861623e-08
-6.782193099572804869e-06 -1.121199596489119782e-07 -7.120646247152901839e-08 -3.178668921656558767e-08 -8.848098070598120616e-09 -3.452280368012151593e-09 -2.490058094527395604e-09 6.681530980497786543e-02 8.750407135549363458e-10 -2.585184656453405375e-07 -1.845822319678301379e-07 -1.076672827251188444e-07 -3.918943402316656992e-08 -9.061797784048422831e-09 -4.832756525234058092e-09 -2.928922722960235779e-09 6.268042304764882626e-10 2.770481293093901462e-09 -2.838946616092976425e-07 -1.984106663708085995e-07 -1.105015360011666457e-07 -3.730468798887648077e-08 -7.521114455656529931e-09 -3.847969897241728475e-09 -1.749186319874562796e-09 1.898746912717780041e-09 3.756860918703119926e-09 -3.181172412965503010e-07 -2.161664163904975462e-07 -1.138464774585478197e-07 -3.491759987259190500e-08 -5.224510139575252669e-09 -2.132356513361071641e-09 1.061196275919673744e-10 3.729111373385704284e-09 5.093160631269680811e-09 -3.297498618615811849e-07 -2.201634785033068955e-07 -1.126956092035828103e-07 -3.303226268472224237e-08 -3.669503395197226867e-09 -8.603591548297064393e-10 1.261287768942043118e-09 4.807863312895870032e-09 5.896433290650802184e-09 -6.941829307869305339e-07 -4.578054493784760291e-07 -2.239597143013636783e-07 -5.684717603028581782e-08 -1.659556906190610450e-08 -1.353044161707510511e-08 -3.118876724128165777e-09 7.389417410863050213e-09 1.055939604147832260e-08 -8.563439764957643877e-07 -5.446519193552453232e-07 -2.449730319493642542e-07 -5.150982747012506088e-08 -1.540136697322062780e-08 -1.312600505276997012e-08 1.000007528479819570e-09 1.300871902077926567e-08 1.507754793352274591e-08 -1.028520621796595448e-06 -6.446360811177651666e-07 -2.687525064250197512e-07 -4.583424744620882509e-08 -1.569447765145758389e-08 -1.291179559594288368e-08 6.683246887166332810e-09 1.937618588647217804e-08 2.040094835067126807e-08 -1.084492961126998124e-06 -6.722400817810763105e-07 -2.697238390410051946e-07 -3.720770564108828797e-08 -1.036535194969759702e-08 -9.493285351428435213e-09 8.963767492062335534e-09 2.264628396636809125e-08 2.251844565397555326e-08 -1.226054384978288026e-06 -7.305920433300536725e-07 -2.673160380427999016e-07 -4.057984679564455746e-08 -1.781029415285548269e-08 -9.179835212851058696e-09 1.435007761838203378e-08 2.808798045027866491e-08 2.578667765677927637e-08 -1.619031405367600838e-06 -9.096525260037914259e-07 -2.678296514784751357e-07 -1.426327969177985947e-08 -9.000581308607320048e-09 3.331842575611052317e-09 3.291342965546536805e-08 4.814826979015379659e-08 3.897638199630735366e-08 -1.767104843055439239e-06 -9.630891681245852351e-07 -2.611264684030456547e-07 -1.053960204436483964e-09 -4.484035229968073936e-09 9.655804734114062879e-09 4.536060069043770123e-08 5.779987474665202653e-08 4.517202943211534208e-08 -2.398638605801309645e-06 -1.211998888579055006e-06 -2.305202891400047176e-07 2.687282461533382636e-08 3.746989269223756299e-09 3.851915872598548684e-08 8.717016074071982083e-08 9.411690175404976635e-08 6.674997847116181065e-08 -2.693002015022244029e-06 -1.273580967234662074e-06 -1.525619298783640810e-07 7.518261014217618126e-08 3.366122478106024237e-08 7.534299937735336139e-08 1.255570955955695028e-07 1.234551525120502216e-07 8.207601943497393359e-08 -3.109246166631790640e-06 -1.290859732583922107e-06 9.941985507226265678e-09 1.640459390687488228e-07 1.035534660679396364e-07 1.583194278969549948e-07 2.035827564991267826e-07 1.769212900339804667e-07 1.059144680308061068e-07 -1.481855368499916584e-08 -1.443768250223695911e-08 -8.464227038333948529e-09 -2.897403920286812503e-09 -1.033733497683494949e-09 -8.280319758979053743e-10 -2.847325827915392116e-08 -2.468613147444587035e-08 -1.171111601629247893e-08 -3.431423760007665405e-09 -1.606347928472048539e-09 -1.435380048535445371e-09 -3.244167379676625867e-08 -2.647470056808081840e-08 -1.191875838008361651e-08 -3.409789334079690952e-09 -1.683573359664339087e-09 -1.463703631018982559e-09 -3.750620388230756188e-08 -2.874373826899001805e-08 -1.228664179660694590e-08 -3.415878132816897546e-09 -1.758061640004685660e-09 -1.458311472408824013e-09 -3.920150240707240361e-08 -2.925917065851649586e-08 -1.231152644842469913e-08 -3.364281874651055995e-09 -1.711092508766893061e-09 -1.485492809980943529e-09 -8.892720316821731020e-08 -5.868683855658346631e-08 -1.994572440576274587e-08 -6.081666668585744908e-09 -4.989930173075647858e-09 -3.962531558029725146e-09 -1.141166174398264527e-07 -6.809137797484635619e-08 -2.072508730468315748e-08 -6.749423828875956203e-09 -6.194806490963904377e-09 -4.542665289098721269e-09 -1.419186173443713583e-07 -7.837711833731261260e-08 -2.149146706313606934e-08 -7.827871098360610038e-09 -7.936978084053959402e-09 -5.032817669431286610e-09 -1.519027874315542359e-07 -8.170680928367279022e-08 -2.150786124706056674e-08 -7.292526508711936485e-09 -7.668702468898598095e-09 -5.172297731261306542e-09 -1.708196973566268936e-07 -8.253091603257093080e-08 -2.196246638138006002e-08 -9.800231604819552404e-09 -9.360867656705104780e-09 -5.431861463329588688e-09 -2.325871219787425263e-07 -9.660998269735848372e-08 -2.226055014722353980e-08 -1.194738209963932320e-08 -1.145961593139382336e-08 -5.924696957475784872e-09 -2.549370919812349028e-07 -1.002448088085371530e-07 -2.148376215702870764e-08 -1.347032683144430563e-08 -1.296685408560428237e-08 -5.380464183524726044e-09 -3.432118202409301560e-07 -1.124010056902069346e-07 -2.336650232972436993e-08 -2.059875552101674809e-08 -1.742288692244281151e-08 -4.471306254410605592e-09 -3.857169540829727046e-07 -1.116836712779374706e-07 -2.141736564665127913e-08 -2.239813678117564935e-08 -1.803274229676506767e-08 -1.780929157978708850e-09 -4.369756816714845110e-07 -1.045127872467121226e-07 -1.968842286655074649e-08 -2.581328710743784408e-08 -1.630272054861917406e-08 5.474821024841148067e-09
8.816589449273012010e-06 1.457516232257936813e-07 9.256565487439175285e-08 4.132147001118925312e-08 1.150218623239759326e-08 4.487831328551448478e-09 3.236979484655179633e-09 8.750407135549363458e-10 6.681530934058689530e-02 3.360640346253959522e-07 2.399497824668749566e-07 1.399633149586921869e-07 5.094475274574452667e-08 1.177998761776912958e-08 6.282397089809742463e-09 3.807486575192578188e-09 -8.148213246135359375e-10 -3.601518827241661761e-09 3.690521106523968629e-07 2.579262138464154682e-07 1.436477349041733182e-07 4.849465559331636862e-08 9.777158712967470347e-09 5.002212455330783441e-09 2.273874752045934042e-09 -2.468297754388875938e-09 -4.883774297182775145e-09 4.135401443264221743e-07 2.810080040563372320e-07 1.479960297888235691e-07 4.539153310896169012e-08 6.791661679037183825e-09 2.771981225213417720e-09 -1.379514229765962946e-10 -4.847700958533208034e-09 -6.620912384215861540e-09 4.286621024062514309e-07 2.862040306416173620e-07 1.464999454448276974e-07 4.294066747968010185e-08 4.770212885888663439e-09 1.118433718369774107e-09 -1.639625453432158116e-09 -6.250036873868202987e-09 -7.665135860252712389e-09 9.024110363102128382e-07 5.951294272444406279e-07 2.911389907633232096e-07 7.389913631936445129e-08 2.157359971144128589e-08 1.758905225105177056e-08 4.054419450437585963e-09 -9.605957634115884646e-09 -1.372680759205411228e-08 1.113214141395740080e-06 7.080264886613471125e-07 3.184554932499972383e-07 6.696078904559398569e-08 2.002118305493716383e-08 1.706330031603572345e-08 -1.299971218062797253e-09 -1.691083299801414256e-08 -1.960023079259979501e-08 1.337037139662501961e-06 8.380020426964222923e-07 3.493678929256311866e-07 5.958275391407931303e-08 2.040221563175600855e-08 1.678483628393449501e-08 -8.687963189368473861e-09 -2.518829433868280006e-08 -2.652044601841568920e-08 1.409799022013307189e-06 8.738861789091177670e-07 3.506305878634045280e-07 4.836858228167194615e-08 1.347455775676182633e-08 1.234090481346128969e-08 -1.165255201908525999e-08 -2.943929571921180217e-08 -2.927311084365526322e-08 1.593823413184056666e-06 9.497414783652041788e-07 3.475005394314212014e-07 5.275223572359367146e-08 2.315269547934357574e-08 1.193343172266584763e-08 -1.865454744047982890e-08 -3.651329126929631893e-08 -3.352168639593652483e-08 2.104678383088908795e-06 1.182513199716288571e-06 3.481682170884116224e-07 1.854171348357764038e-08 1.170040856073377282e-08 -4.331266843555563135e-09 -4.278618912487813439e-08 -6.259089371244222112e-08 -5.066779332796098385e-08 2.297168141087455042e-06 1.251978773493072504e-06 3.394543376232133798e-07 1.370107615923474116e-09 5.829072855680731194e-09 -1.255217374279606962e-08 -5.896703139950254810e-08 -7.513760790631753565e-08 -5.872189603662622868e-08 3.118137675239415799e-06 1.575551809966864598e-06 2.996674850209065913e-07 -3.493363555081316401e-08 -4.870941533595999926e-09 -5.007342071103626479e-08 -1.133178469257196014e-07 -1.223483423164826124e-07 -8.677239755457783047e-08 3.500798754021262579e-06 1.655606137080247269e-06 1.983246247310530238e-07 -9.773449349150326396e-08 -4.375829394668758241e-08 -9.794299331123401779e-08 -1.632193817039782473e-07 -1.604869367645535962e-07 -1.066956597025079756e-07 4.041900097130097521e-06 1.678067865615275920e-06 -1.292419771022995996e-08 -2.132533937555855035e-07 -1.346155119687987696e-07 -2.058091500961766223e-07 -2.646497315325885963e-07 -2.299908534252163437e-07 -1.376847234598181942e-07 1.926354825858300015e-08 1.876843041068732366e-08 1.100316869584956850e-08 3.766513347355445975e-09 1.343813677261778217e-09 1.076409632574748357e-09 3.701413758718048122e-08 3.209101880550629517e-08 1.522399913900417903e-08 4.460718542557260284e-09 2.088190352309533466e-09 1.865938702395794920e-09 4.217292470356560239e-08 3.441608964449949532e-08 1.549392620344272168e-08 4.432594623261939801e-09 2.188580434377292933e-09 1.902758267221469820e-09 4.875661848257666157e-08 3.736575114191378124e-08 1.597216045614873926e-08 4.440509826783436503e-09 2.285412325905795224e-09 1.895748668996652523e-09 5.096044117936057588e-08 3.803579336875614509e-08 1.600450954374387922e-08 4.373436681166927929e-09 2.224354266833615763e-09 1.931083359492352631e-09 1.156019343146757217e-07 7.629062665021337848e-08 2.592867244741699197e-08 7.905932107363000635e-09 6.486716770025157040e-09 5.151138195864220501e-09 1.483472013455458329e-07 8.851616517337214588e-08 2.694181415702259478e-08 8.773990661234316281e-09 8.053009512802064995e-09 5.905289671267134781e-09 1.844887289352777110e-07 1.018872309372463021e-07 2.793807828476292142e-08 1.017593051728686442e-08 1.031776539057682610e-08 6.542468861173766331e-09 1.974677649724481354e-07 1.062157007457612116e-07 2.795939009156288947e-08 9.480003198272726656e-09 9.969017437908690276e-09 6.723787561992232544e-09 2.220590182749748228e-07 1.072870077346270416e-07 2.855035923266254624e-08 1.273992310436080080e-08 1.216876691749541237e-08 7.061210402652915859e-09 3.023542879962708262e-07 1.255892513879662471e-07 2.893785663156448895e-08 1.553113593488633295e-08 1.489705872865985592e-08 7.701877537033134839e-09 3.314083869908798371e-07 1.303143851420875585e-07 2.792806220399133867e-08 1.751090534827909627e-08 1.685641019696155775e-08 6.994395921231348280e-09 4.461621290895667063e-07 1.461169722399049184e-07 3.037555181371013440e-08 2.677758771070521521e-08 2.264908102158896320e-08 5.812525678395688346e-09 5.014171637177157704e-07 1.451844651705892899e-07 2.784174930132581493e-08 2.911671394916867280e-08 2.344186948689684582e-08 2.315139217302257314e-09 5.680515326018011923e-07 1.358625925014604514e-07 2.559419037021970320e-08 3.355627765550152483e-08 2.119290793894612692e-08 -7.117056175724766812e-09
-2.604737289755674947e-03 -4.306026613158768512e-05 -2.734722019089404270e-05 -1.220784685789587823e-05 -3.398159068834804852e-06 -1.325866615301634153e-06 -9.563200394400452749e-07 -2.585184656453405375e-07 3.360640346253958993e-07 6.671602508801606490e-02 -7.088978676576206909e-05 -4.135019190451074431e-05 -1.505091032736761828e-05 -3.480231579048228825e-06 -1.856045817153172323e-06 -1.124868331423325700e-06 2.407274945624236045e-07 1.064018058575587863e-06 -1.090312529589999179e-04 -7.620067046069065075e-05 -4.243870193192339577e-05 -1.432706360033418044e-05 -2.888523962020924949e-06 -1.477833281071599890e-06 -6.717842985618846767e-07 7.292238387721496366e-07 1.442842393854600465e-06 -1.221746164926387713e-04 -8.301986058177063938e-05 -4.372334446836772436e-05 -1.341028972805816169e-05 -2.006500873901017604e-06 -8.189428469317435480e-07 4.075580672882835679e-08 1.432185033558181209e-06 1.956055397452382601e-06 -1.266421862180161029e-04 -8.455495352027160127e-05 -4.328134740115177859e-05 -1.268621596535203534e-05 -1.409292272872223838e-06 -3.304255040023511758e-07 4.844042681537648494e-07 1.846485446711468034e-06 2.264556529610209793e-06 -2.666046423606683842e-04 -1.758226148890659995e-04 -8.601291804571791248e-05 -2.183245995056041008e-05 -6.373616460873873141e-06 -5.196437982439262659e-06 -1.197821174687485330e-06 2.837945012337848603e-06 4.055392145686546407e-06 -3.288834534328832293e-04 -2.091764630486511983e-04 -9.408319432002152695e-05 -1.978262288178833823e-05 -5.914976804610016443e-06 -5.041111971380596696e-06 3.840582037736235189e-07 4.996067647721792737e-06 5.790612382150993265e-06 -3.950088087354857217e-04 -2.475759115315030430e-04 -1.032158278189755120e-04 -1.760288622253306393e-05 -6.027547517714228972e-06 -4.958843691515347605e-06 2.566736471237036853e-06 7.441527124155557979e-06 7.835092592500807359e-06 -4.165052830039552424e-04 -2.581773746303191760e-04 -1.035888732702724583e-04 -1.428981701445506766e-05 -3.980868481394258884e-06 -3.645946671544117555e-06 3.442582524632795025e-06 8.697425663877148745e-06 8.648328680871864268e-06 -4.708726998679174723e-04 -2.805877554533871862e-04 -1.026641445056592340e-04 -1.558490573909573614e-05 -6.840138085184009370e-06 -3.525564480644391827e-06 5.511223542992657304e-06 1.078733810710543050e-05 9.903510543772809087e-06 -6.217976122077907520e-04 -3.493568850688964214e-04 -1.028614004741610927e-04 -5.477888338173968224e-06 -3.456721066447386552e-06 1.279611841313740014e-06 1.264057750917485999e-05 1.849159879678591824e-05 1.496908656463028096e-05 -6.786660025802382932e-04 -3.698795113533246337e-04 -1.002870074039121702e-04 -4.047790155941068206e-07 -1.722117551151954562e-06 3.708363103835906774e-06 1.742097966976821017e-05 2.219834895371747391e-05 1.734855787623960306e-05 -9.212098991359843987e-04 -4.654746118070784240e-04 -8.853254166503324654e-05 1.032065105327554525e-05 1.439051134429693140e-06 1.479348753870068705e-05 3.347816331706196188e-05 3.614609610724385633e-05 2.563568383583402925e-05 -1.034261730229627712e-03 -4.891255362646894237e-04 -5.859221964297885778e-05 2.887428082677628743e-05 1.292777219976206344e-05 2.893587916460121004e-05 4.822086957562408168e-05 4.741360716799201258e-05 3.152173128636723482e-05 -1.194122507919427156e-03 -4.957615378891478807e-04 3.818272350062384194e-06 6.300271438043717484e-05 3.977025876299525049e-05 6.080341734327181241e-05 7.818703915079121291e-05 6.794756131791865122e-05 4.067701410947042491e-05 -5.691144265119039872e-06 -5.544868664031160533e-06 -3.250731359609233952e-06 -1.112763367815450005e-06 -3.970108414128405890e-07 -3.180100791980101994e-07 -1.093530610404298295e-05 -9.480839935883063666e-06 -4.497716320435250482e-06 -1.317856524198430134e-06 -6.169264555260853981e-07 -5.512653329830851196e-07 -1.245939716547575328e-05 -1.016774939792549574e-05 -4.577462473332880917e-06 -1.309547707989613438e-06 -6.465852926294835359e-07 -5.621431553026806985e-07 -1.440445684974364280e-05 -1.103918538104310246e-05 -4.718750053800236506e-06 -1.311886143490899971e-06 -6.751929124072948677e-07 -5.600722681430328754e-07 -1.505554525431898767e-05 -1.123713992843457317e-05 -4.728307136528590652e-06 -1.292070326441265434e-06 -6.571541680356236746e-07 -5.705114052363126160e-07 -3.415296479549138339e-05 -2.253899211684677576e-05 -7.660261418117465438e-06 -2.335696392443803308e-06 -1.916409191579315025e-06 -1.521831295496996901e-06 -4.382709316327508065e-05 -2.615085544130291278e-05 -7.959579879751644708e-06 -2.592152077260389414e-06 -2.379148342274498007e-06 -1.744634736828634333e-06 -5.450459892254241195e-05 -3.010114866969070617e-05 -8.253912097317373948e-06 -3.006335480271843234e-06 -3.048238597749610635e-06 -1.932880362391132151e-06 -5.833907248463938273e-05 -3.137993416636028683e-05 -8.260208370746383196e-06 -2.800733546641454727e-06 -2.945205922556195580e-06 -1.986448421113754771e-06 -6.560421223595221910e-05 -3.169643674127658301e-05 -8.434801887635626097e-06 -3.763831010786683874e-06 -3.595090952427086187e-06 -2.086135251326387519e-06 -8.932631979663657826e-05 -3.710357708781700687e-05 -8.549282541454256696e-06 -4.588455564889497617e-06 -4.401126376755600882e-06 -2.275411341002840325e-06 -9.790994450854274833e-05 -3.849955136554158048e-05 -8.250952987195137861e-06 -5.173350579662707429e-06 -4.979989196963681192e-06 -2.066395852973343787e-06 -1.318123228491948652e-04 -4.316820335678189801e-05 -8.974029352427249912e-06 -7.911061487106946488e-06 -6.691352280273734485e-06 -1.717228920467432516e-06 -1.481366453063949820e-04 -4.289270726496744655e-05 -8.225453054658472845e-06 -8.602123419141683748e-06 -6.925570476590667701e-06 -6.839753041671002506e-07 -1.678228319447014772e-04 -4.013869115802075680e-05 -7.561443395089008033e-06 -9.913730044658834701e-06 -6.261146433611449636e-06 2.102634099144176993e-06
-1.859782903448486523e-03 -3.074503792932624938e-05 -1.952592024074591696e-05 -8.716404899459827269e-06 -2.426286199484709078e-06 -9.466690069240671925e-07 -6.828126838628731013e-07 -1.845822319678301379e-07 2.399497824668749566e-07 -7.088978676576208264e-05 6.676469515733088333e-02 -2.952404461700494932e-05 -1.074635273901275623e-05 -2.484885986856104997e-06 -1.325217054454781371e-06 -8.031561953059605972e-07 1.718794753459295817e-07 7.597090893127824226e-07 -7.784833464481002226e-05 -5.440729270912294060e-05 -3.030124097656725296e-05 -1.022952604292003732e-05 -2.062406639585406903e-06 -1.055173234204340316e-06 -4.796541125987099103e-07 5.206659548620856793e-07 1.030189734302600115e-06 -8.723269862263085010e-05 -5.927619570844959511e-05 -3.121847598361319256e-05 -9.574949329678012725e-06 -1.432641992615535794e-06 -5.847253431719214468e-07 2.909965349236258142e-08 1.022580377092902395e-06 1.396623913162968426e-06 -9.042254422736751315e-05 -6.037225234857870307e-05 -3.090288999641380938e-05 -9.057960530073278624e-06 -1.006234941757089703e-06 -2.359238705660655479e-07 3.458647364603712765e-07 1.318390948202897570e-06 1.616893778203925102e-06 -1.903557636282305710e-04 -1.255373793343144491e-04 -6.141323928761613263e-05 -1.558838041593234051e-05 -4.550763324075168306e-06 -3.710257674192316142e-06 -8.552445388000438718e-07 2.026293260218925924e-06 2.895550737108911693e-06 -2.348228461761476876e-04 -1.493520330482910486e-04 -6.717541803020391064e-05 -1.412479637221680383e-05 -4.223294525237869950e-06 -3.599354873758705935e-06 2.742176280565777259e-07 3.567193218390419596e-06 4.134498304752912088e-06 -2.820363620112791838e-04 -1.767692463200975801e-04 -7.369612002637670296e-05 -1.256846399703007706e-05 -4.303670035076658829e-06 -3.540615306819938344e-06 1.832650312044368230e-06 5.313251733863283858e-06 5.594257550570753161e-06 -2.973848485884686291e-04 -1.843386929204369942e-04 -7.396247454714158036e-05 -1.020293197375911348e-05 -2.842340827112141506e-06 -2.603206593344656863e-06 2.458004555086303466e-06 6.209963521968111188e-06 6.174908267081852581e-06 -3.362031942181494633e-04 -2.003397089455199727e-04 -7.330221803930924752e-05 -1.112762556109649300e-05 -4.883859849545647071e-06 -2.517253686924684212e-06 3.935014622262332364e-06 7.702161390408346586e-06 7.071108347805066534e-06 -4.439636093579374452e-04 -2.494408801258019069e-04 -7.344305883706100458e-05 -3.911213279897181028e-06 -2.468099476539566271e-06 9.136430897984178645e-07 9.025374663977718390e-06 1.320300493832791818e-05 1.068793055738498958e-05 -4.845676505321754209e-04 -2.640940390634628960e-04 -7.160494171191541190e-05 -2.890122915033942920e-07 -1.229592247923551772e-06 2.647771937468634991e-06 1.243858268493466368e-05 1.584962523141050561e-05 1.238687351104933383e-05 -6.577440372350609916e-04 -3.323489583509309448e-04 -6.321225101473246829e-05 7.368946748230373098e-06 1.027482774376656378e-06 1.056255282060881748e-05 2.390341475925517078e-05 2.580831926161875352e-05 1.830388296877607132e-05 -7.384630654066987954e-04 -3.492357227590000960e-04 -4.183485559011287724e-05 2.061624181532949987e-05 9.230431725822661645e-06 2.066022303985382724e-05 3.442970973651510847e-05 3.385332422914918076e-05 2.250652192988797156e-05 -8.526036900481019469e-04 -3.539738291380820794e-04 2.726247159467735314e-06 4.498394964298909563e-05 2.839597206368508076e-05 4.341365115438078066e-05 5.582556031880611181e-05 4.851457126485725368e-05 2.904339554766461221e-05 -4.063478050917027443e-06 -3.959037244865372609e-06 -2.321022788011067296e-06 -7.945132490659176578e-07 -2.834658137107397761e-07 -2.270592549747060547e-07 -7.807810567407610808e-06 -6.769321456115401082e-06 -3.211370279146782070e-06 -9.409498004047020529e-07 -4.404856025922324963e-07 -3.936035490327495102e-07 -8.896011865288671567e-06 -7.259774938218136259e-06 -3.268309046967284205e-06 -9.350173041050457754e-07 -4.616620177332148310e-07 -4.013703161675002706e-07 -1.028478483721769184e-05 -7.881980390271218573e-06 -3.369188405379447937e-06 -9.366869474826000341e-07 -4.820878635105903238e-07 -3.998917023550319501e-07 -1.074966207770759962e-05 -8.023319973478503566e-06 -3.376012164203395085e-06 -9.225384504684423499e-07 -4.692081967149962584e-07 -4.073452481575945284e-07 -2.438522313883364112e-05 -1.609284451247048106e-05 -5.469428059939680485e-06 -1.667687653337488773e-06 -1.368316514885483869e-06 -1.086587824587737089e-06 -3.129255257083857759e-05 -1.867171558973225660e-05 -5.683141496539639212e-06 -1.850797059414598224e-06 -1.698712353499940823e-06 -1.245669522633736257e-06 -3.891629364471125337e-05 -2.149222568058025548e-05 -5.893294753958612487e-06 -2.146524085261826488e-06 -2.176442918839724823e-06 -1.380076933871335168e-06 -4.165410847254829722e-05 -2.240527876015092481e-05 -5.897790294343726222e-06 -1.999724266874915822e-06 -2.102877569821648287e-06 -1.418324537641234862e-06 -4.684141958979459817e-05 -2.263126165679151024e-05 -6.022450097480348222e-06 -2.687376033222492344e-06 -2.566895600551481622e-06 -1.489500952728307677e-06 -6.377900874653644094e-05 -2.649196085766396329e-05 -6.104189305340141745e-06 -3.276158116358446315e-06 -3.142405041613243963e-06 -1.624644115532594961e-06 -6.990771836788886291e-05 -2.748868674843874075e-05 -5.891181948787665018e-06 -3.693773264368055406e-06 -3.555713201595068630e-06 -1.475407018677555773e-06 -9.411402273192753332e-05 -3.082210512794599828e-05 -6.407458606412700752e-06 -5.648499355277141231e-06 -4.777626757503606167e-06 -1.226101764716625072e-06 -1.057695919656020489e-04 -3.062540086777415483e-05 -5.872974992271436211e-06 -6.141917701717307477e-06 -4.944858592706316645e-06 -4.883584928406617202e-07 -1.198255328422547877e-04 -2.865903286142460496e-05 -5.398871973341732868e-06 -7.078405073315295250e-06 -4.470459703945914572e-06 1.501281133101507993e-06
-1.084816071071396546e-03 -1.793365838001241341e-05 -1.138951865851806789e-05 -5.084301022106579053e-06 -1.415258876366296150e-06 -5.521944259150851436e-07 -3.982863653668137035e-07 -1.076672827251188444e-07 1.399633149586921869e-07 -4.135019190451074431e-05 -2.952404461700494932e-05 6.679808902821310346e-02 -6.268374730763871688e-06 -1.449440280542010928e-06 -7.730024594078999121e-07 -4.684830399467087499e-07 1.002577326616170289e-07 4.431402331408457314e-07 -4.540913048089716283e-05 -3.173591143616887473e-05 -1.767479049508198738e-05 -5.966908411850781610e-06 -1.203007008806269668e-06 -6.154852161006311385e-07 -2.797834569495935207e-07 3.037057682629513319e-07 6.009122774233459025e-07 -5.088305372271575001e-05 -3.457595486939080522e-05 -1.820981599442801413e-05 -5.585092159557380861e-06 -8.356636975204508419e-07 -3.410717714736791824e-07 1.697390147666673744e-08 5.964737201184598752e-07 8.146542606841295596e-07 -5.274369873124786228e-05 -3.521528747956366039e-05 -1.802573388996086111e-05 -5.283531285255764338e-06 -5.869393863486049688e-07 -1.376149903652047091e-07 2.017437754876513873e-07 7.690207743675901061e-07 9.431382300367254412e-07 -1.110349983441991204e-04 -7.322627085641594303e-05 -3.582249779381554408e-05 -9.092741720456633692e-06 -2.654471756055570645e-06 -2.164202684795403707e-06 -4.988663024409991795e-07 1.181941983289143592e-06 1.688982067957471546e-06 -1.369727600540163767e-04 -8.711741859630455040e-05 -3.918359122722354470e-05 -8.239029446275457339e-06 -2.463458377507762688e-06 -2.099512800823397158e-06 1.599518359563701957e-07 2.080752825908538893e-06 2.411663317528521824e-06 -1.645125232461416051e-04 -1.031099484373401443e-04 -4.298713319279335622e-05 -7.331216835781674593e-06 -2.510341615670668617e-06 -2.065249862872524797e-06 1.068989561885607451e-06 3.099233173858728210e-06 3.263144577422852786e-06 -1.734653342837552789e-04 -1.075252257828512213e-04 -4.314249845838025849e-05 -5.951396024051399942e-06 -1.657944592885662748e-06 -1.518456989545890807e-06 1.433760273406114532e-06 3.622287427692086325e-06 3.601839608860327207e-06 -1.961081734632091423e-04 -1.168586588977028223e-04 -4.275736916753783841e-05 -6.490772132144563845e-06 -2.848767801781333395e-06 -1.468320441851648556e-06 2.295303981026922315e-06 4.492690218201062832e-06 4.124595382483855552e-06 -2.589650961460697280e-04 -1.454994962266351380e-04 -4.283952196106029849e-05 -2.281420597830468317e-06 -1.439648666620396030e-06 5.329303249313926699e-07 5.264523867150834995e-06 7.701346171628500298e-06 6.234296924467590171e-06 -2.826495360527827802e-04 -1.540467208935912091e-04 -4.176734359326689071e-05 -1.685816005613891368e-07 -7.172242679180110588e-07 1.544452067481533436e-06 7.255456737959671715e-06 9.245126482027080423e-06 7.225294646057107326e-06 -3.836637603888700494e-04 -1.938599879342930499e-04 -3.687186588403885387e-05 4.298325274701095932e-06 5.993333008524971704e-07 6.161163773519083988e-06 1.394292228208101626e-05 1.505405789591450827e-05 1.067670122718079081e-05 -4.307473736641025228e-04 -2.037100803210452652e-04 -2.440237706828804262e-05 1.202550599045393027e-05 5.384134169925206895e-06 1.205116034994983053e-05 2.008293676387668257e-05 1.974672963972053008e-05 1.312811116189485290e-05 -4.973258886851444210e-04 -2.064738297548868564e-04 1.590226862941619705e-06 2.623925159355711530e-05 1.656344231967138582e-05 2.532329251378347384e-05 3.256319051977130504e-05 2.829867211472270551e-05 1.694108607524507870e-05 -2.370237023852050692e-06 -2.309316437545765643e-06 -1.353858462236953610e-06 -4.634415875464209136e-07 -1.653463260375963995e-07 -1.324442376716803229e-07 -4.554315650337122902e-06 -3.948562325326171429e-06 -1.873200405552583336e-06 -5.488583982881618972e-07 -2.569363660035698960e-07 -2.295899455951161295e-07 -5.189066219510114124e-06 -4.234645081819642894e-06 -1.906412932823454916e-06 -5.453979581929736973e-07 -2.692886225115852176e-07 -2.341203205073834597e-07 -5.999141006317034023e-06 -4.597579095592891629e-06 -1.965256117714533707e-06 -5.463718653977179449e-07 -2.812030700115788570e-07 -2.332578413310777189e-07 -6.270305076394067800e-06 -4.680022831933025850e-06 -1.969236433494191263e-06 -5.381190113070582474e-07 -2.736903277963463693e-07 -2.376055134481262984e-07 -1.422396232840815916e-05 -9.386996903783865852e-06 -3.190331219837326409e-06 -9.727664258625453995e-07 -7.981424836779565744e-07 -6.338094261204367209e-07 -1.825302505510020603e-05 -1.089125892525279634e-05 -3.314990807898731844e-06 -1.079574605520751727e-06 -9.908632119304209796e-07 -7.266021829167447469e-07 -2.269997250433686048e-05 -1.253646959446449316e-05 -3.437573734439986324e-06 -1.252072927606819900e-06 -1.269524658899129243e-06 -8.050023658151289465e-07 -2.429694681749354422e-05 -1.306905576493787214e-05 -3.440195994516083815e-06 -1.166444222277184832e-06 -1.226613804766204330e-06 -8.273122898243359646e-07 -2.732271851116906700e-05 -1.320087216007109308e-05 -3.512910372956948390e-06 -1.567553236695623284e-06 -1.497276695617199556e-06 -8.688296727535655149e-07 -3.720245710236056119e-05 -1.545282776785364163e-05 -3.560589059624371348e-06 -1.910991314850033604e-06 -1.832972808082516153e-06 -9.476590214015541261e-07 -4.077734892432808303e-05 -1.603422050071537266e-05 -3.436341329840375614e-06 -2.154587286854963214e-06 -2.074056503078237097e-06 -8.606086453774531112e-07 -5.489694747890323443e-05 -1.797861187187435789e-05 -3.737486809924190141e-06 -3.294783959288499138e-06 -2.786801770524070304e-06 -7.151882602357930366e-07 -6.169567049046018861e-05 -1.786387377944058508e-05 -3.425721166058098408e-06 -3.582596128648293761e-06 -2.884348522936017678e-06 -2.848607439585647066e-07 -6.989453635203390447e-05 -1.671688634828760243e-05 -3.149175676084647097e-06 -4.128851580927779418e-06 -2.607630451342049962e-06 8.757010817579561470e-07
-3.948583707927541325e-04 -6.527608982868281355e-06 -4.145630675598771990e-06 -1.850616774349769955e-06 -5.151350805672207341e-07 -2.009912990709377411e-07 -1.449708476224789369e-07 -3.918943402316656992e-08 5.094475274574452667e-08 -1.505091032736761828e-05 -1.074635273901275623e-05 -6.268374730763871688e-06 6.681302887452393591e-02 -5.275766491650212192e-07 -2.813624354210983185e-07 -1.705214873104691951e-07 3.649245806161749170e-08 1.612970485567221525e-07 -1.652830904606185860e-05 -1.155144233153976368e-05 -6.433384575597801707e-06 -2.171873921305426172e-06 -4.378782728397144561e-07 -2.240282902856502603e-07 -1.018373924685434942e-07 1.105447900843074730e-07 2.187239377993412105e-07 -1.852074303625375691e-05 -1.258517971147655429e-05 -6.628126617717166283e-06 -2.032897971978026590e-06 -3.041702781999599207e-07 -1.241455096387781953e-07 6.178270456902408772e-09 2.171083630002449853e-07 2.965231274785753872e-07 -1.919799264223263509e-05 -1.281788813051592910e-05 -6.561123222579211630e-06 -1.923133894272232346e-06 -2.136379945208758452e-07 -5.008999436982809621e-08 7.343200440233008187e-08 2.799131559441877120e-07 3.432895537552868568e-07 -4.041523693861382159e-05 -2.665337173797305612e-05 -1.303890446849962102e-05 -3.309634948745623806e-06 -9.661918004923261111e-07 -7.877404925792030579e-07 -1.815805837303954112e-07 4.302108885907096377e-07 6.147666184491581254e-07 -4.985623122682903693e-05 -3.170956154865375897e-05 -1.426229699796958996e-05 -2.998895232863621514e-06 -8.966655153788350402e-07 -7.641942501579126971e-07 5.822030391628065200e-08 7.573658731375777610e-07 8.778128144059249630e-07 -5.988033237728586003e-05 -3.753062600951590752e-05 -1.564673480619958965e-05 -2.668463726616973158e-06 -9.137303796744113535e-07 -7.517230043692205520e-07 3.890977356039102445e-07 1.128078938329235869e-06 1.187740471276256865e-06 -6.313903445093429936e-05 -3.913772721841007825e-05 -1.570328566056409020e-05 -2.166227622050732766e-06 -6.034693975034255350e-07 -5.526977973499251611e-07 5.218693387399608702e-07 1.318463609069670555e-06 1.311020879702470107e-06 -7.138072152300300381e-05 -4.253497057782459553e-05 -1.556310381003488862e-05 -2.362553226884242673e-06 -1.036912932039519044e-06 -5.344487724067658845e-07 8.354595904237524118e-07 1.635278447048985286e-06 1.501296907685380766e-06 -9.425979083757158347e-05 -5.295984781500760318e-05 -1.559300631523497771e-05 -8.304062268018167971e-07 -5.240126341917715061e-07 1.939794269830773470e-07 1.916215451278963741e-06 2.803185796498129746e-06 2.269199721757752244e-06 -1.028806064800493993e-04 -5.607092193788699839e-05 -1.520274789742962839e-05 -6.136142145973423384e-08 -2.610599284756474207e-07 5.621596539687719746e-07 2.640888076149746043e-06 3.365100939978519031e-06 2.629909482832461330e-06 -1.396484172747846600e-04 -7.056241241156909426e-05 -1.342086025392438340e-05 1.564532237644265075e-06 2.181492116933115563e-07 2.242580244406215660e-06 5.075035043456836916e-06 5.479473371674804761e-06 3.886174776007855526e-06 -1.567862153998926512e-04 -7.414771275483356789e-05 -8.882135054598142847e-06 4.377121458626173028e-06 1.959751982994309476e-06 4.386459298343349682e-06 7.309917231855197101e-06 7.187542388014521776e-06 4.778454821242050234e-06 -1.810198939672147715e-04 -7.515368015136033946e-05 5.788210601193005917e-07 9.550732526317129483e-06 6.028868877842019851e-06 9.217335815485724944e-06 1.185256072372910369e-05 1.030033372918416459e-05 6.166326094823157358e-06 -8.627342040633271479e-07 -8.405599349884953668e-07 -4.927861606575368019e-07 -1.686864668546597135e-07 -6.018382531085856900e-08 -4.820791035689416428e-08 -1.657709270468306078e-06 -1.437223256853214654e-06 -6.818196006022663973e-07 -1.997770301558528504e-07 -9.352136051725517773e-08 -8.356763352385676724e-08 -1.888749888585149563e-06 -1.541353509117405111e-06 -6.939085111169624350e-07 -1.985174767857940100e-07 -9.801741474288263941e-08 -8.521662868961931389e-08 -2.183606149539101223e-06 -1.673456579126540670e-06 -7.153266341868030640e-07 -1.988719658299956614e-07 -1.023541124137578340e-07 -8.490269793999239323e-08 -2.282306201818380460e-06 -1.703464983575399862e-06 -7.167754152713644029e-07 -1.958680386136429146e-07 -9.961957590531279263e-08 -8.648519176051941196e-08 -5.177329817455397547e-06 -3.416739853792948918e-06 -1.161237394381593965e-06 -3.540738161249968826e-07 -2.905130640757429792e-07 -2.306980547806938591e-07 -6.643854131122879686e-06 -3.964270874840613611e-06 -1.206611797617534806e-06 -3.929505482566721696e-07 -3.606608013789017085e-07 -2.644733626388930282e-07 -8.262482829232399112e-06 -4.563105296434495005e-06 -1.251230324160272476e-06 -4.557376033526745192e-07 -4.620897973967658848e-07 -2.930099683498831494e-07 -8.843759869927554377e-06 -4.756959455851746192e-06 -1.252184791345129128e-06 -4.245699132887179015e-07 -4.464708271361961573e-07 -3.011304788047894925e-07 -9.945099823506577976e-06 -4.804938840020226947e-06 -1.278651841170461396e-06 -5.705681669716025069e-07 -5.449884569588530713e-07 -3.162422444028266008e-07 -1.354119098403237398e-05 -5.624620209147089223e-06 -1.296006237958151842e-06 -6.955749802227310590e-07 -6.671772994587649741e-07 -3.449350606394604203e-07 -1.484240323394707151e-05 -5.836239296852713523e-06 -1.250781745562170590e-06 -7.842406178386521930e-07 -7.549285022379525354e-07 -3.132499016799090991e-07 -1.998174604991494139e-05 -6.543971445622471821e-06 -1.360394625393548676e-06 -1.199256778150306438e-06 -1.014358135148862066e-06 -2.603188492293489387e-07 -2.245638922989960282e-05 -6.502208332543289817e-06 -1.246916149651076856e-06 -1.304016513296465770e-06 -1.049863833082950452e-06 -1.036854562370213830e-07 -2.544066546140121428e-05 -6.084720427946211228e-06 -1.146257333347631912e-06 -1.502846106326657194e-06 -9.491421994049079245e-07 3.187433443006596001e-07
-9.130335251454675823e-05 -1.509383181730134968e-06 -9.585968209547684704e-07 -4.279192951603272101e-07 -1.191150127049591668e-07 -4.647534607050876494e-08 -3.352170140963041532e-08 -9.061797784048422831e-09 1.177998761776912958e-08 -3.480231579048229249e-06 -2.484885986856104997e-06 -1.449440280542010928e-06 -5.275766491650212192e-07 6.681518848622154672e-02 -6.505961510712729551e-08 -3.942979209470588321e-08 8.438174315091200716e-09 3.729681924778030964e-08 -3.821851425543212468e-06 -2.671047365997455943e-06 -1.487595612037187629e-06 -5.022037898195652740e-07 -1.012508718588852210e-07 -5.180220421847844576e-08 -2.354792510805826228e-08 2.556134220340888041e-08 5.057567541538747992e-08 -4.282563205828443665e-06 -2.910079118618882240e-06 -1.532625938443410328e-06 -4.700682925601104606e-07 -7.033348711635903845e-08 -2.870624524659419502e-08 1.428605411920830135e-09 5.020210502583399422e-08 6.856523158553505283e-08 -4.439164063474899579e-06 -2.963888434536377986e-06 -1.517132700719540387e-06 -4.446874749771237504e-07 -4.939964951250383229e-08 -1.158234129421677868e-08 1.697972913765242290e-08 6.472449729081558779e-08 7.937906211321370792e-08 -9.345240972748560161e-06 -6.163076119185742254e-06 -3.014994183106136729e-06 -7.652889966929142470e-07 -2.234131452751116559e-07 -1.821497357129385970e-07 -4.198699400204712191e-08 9.947793771658534264e-08 1.421528766523223496e-07 -1.152828809380646274e-05 -7.332222108767256861e-06 -3.297880016721872546e-06 -6.934364543180797137e-07 -2.073365380956838235e-07 -1.767051230841932379e-07 1.346231794782496628e-08 1.751261931176379619e-07 2.029772160447796882e-07 -1.384616738592866093e-05 -8.678230550763669921e-06 -3.618004452694979073e-06 -6.170305667179781624e-07 -2.112824575332375108e-07 -1.738213889790901315e-07 8.997131717159900576e-08 2.608464112429041285e-07 2.746419854972465396e-07 -1.459967914148004469e-05 -9.049841586658952697e-06 -3.631080742759881805e-06 -5.008981924474776044e-07 -1.395406130592470605e-07 -1.278006636256418439e-07 1.206721795104525449e-07 3.048691798905096025e-07 3.031481928395841039e-07 -1.650540969125893382e-05 -9.835388331937722239e-06 -3.598666404197645452e-06 -5.462946870684660556e-07 -2.397660375562532660e-07 -1.235809299675030888e-07 1.931838530938863105e-07 3.781264766163947564e-07 3.471458399531861623e-07 -2.179575145769752756e-05 -1.224593933379801281e-05 -3.605580779516245078e-06 -1.920153606057279759e-07 -1.211677750825727632e-07 4.485398642264442806e-08 4.430877189982952568e-07 6.481824367243118693e-07 5.247084966328422851e-07 -2.378914814823190446e-05 -1.296531498428720719e-05 -3.515341077060112942e-06 -1.418864055758444643e-08 -6.036505349799158602e-08 1.299885347566963182e-07 6.106542315009424062e-07 7.781144331650811737e-07 6.081156443772873705e-07 -3.229099245113980143e-05 -1.631619155434287408e-05 -3.103314062589992307e-06 3.617677855662881136e-07 5.044278113191873443e-08 5.185532579342154583e-07 1.173503584756523821e-06 1.267022116926784989e-06 8.986026680771994330e-07 -3.625377642453856737e-05 -1.714522283574735465e-05 -2.053821744600757936e-06 1.012124582121854409e-06 4.531546989498316186e-07 1.014283776745764851e-06 1.690276816298109550e-06 1.661980003231527054e-06 1.104925151118778022e-06 -4.185734535107335703e-05 -1.737783331742163133e-05 1.338411623104583730e-07 2.208421963732831358e-06 1.394059189659430820e-06 2.131330429988427292e-06 2.740675163568213502e-06 2.381752727199459684e-06 1.425843509471367838e-06 -1.994905793735710477e-07 -1.943632090153663376e-07 -1.139472577229982074e-07 -3.900547914621297582e-08 -1.391634425021554182e-08 -1.114714580944106958e-08 -3.833131701990431810e-07 -3.323300488707331151e-07 -1.576575804132821250e-07 -4.619456989605699341e-08 -2.162500374451642495e-08 -1.932339711354338473e-08 -4.367368394472070323e-07 -3.564081534093757582e-07 -1.604529068895173842e-07 -4.590332256824555315e-08 -2.266462922608546393e-08 -1.970469531576238375e-08 -5.049166404248335422e-07 -3.869544304075872085e-07 -1.654054331254927753e-07 -4.598529129566623505e-08 -2.366740659002478085e-08 -1.963210490862274450e-08 -5.277391163631469091e-07 -3.938932928769138005e-07 -1.657404356982241512e-07 -4.529069129260173059e-08 -2.303509797189117089e-08 -1.999802596243650729e-08 -1.197157270487017426e-06 -7.900549320887873246e-07 -2.685136621503835095e-07 -8.187271396811586947e-08 -6.717552079783695404e-08 -5.334445810981003106e-08 -1.536262621383108607e-06 -9.166608787399809124e-07 -2.790056143039385889e-07 -9.086220549467387099e-08 -8.339582676280715932e-08 -6.115434405315010977e-08 -1.910539165950078577e-06 -1.055129743368224988e-06 -2.893227846084005653e-07 -1.053804962257811656e-07 -1.068493180995179753e-07 -6.775288156311385912e-08 -2.044948226213000332e-06 -1.099954764091855928e-06 -2.895434866633363066e-07 -9.817357140547090824e-08 -1.032377336603887728e-07 -6.963059236654399097e-08 -2.299611764985381674e-06 -1.111049067645230567e-06 -2.956634794480168577e-07 -1.319328405726759278e-07 -1.260180279378951534e-07 -7.312489554858027050e-08 -3.131138213936524090e-06 -1.300584512581451933e-06 -2.996763476680893270e-07 -1.608382456020109749e-07 -1.542718317960115891e-07 -7.975955371785965581e-08 -3.432018351064386465e-06 -1.349517328985474684e-06 -2.892190594935176251e-07 -1.813404574480465193e-07 -1.745625982924595097e-07 -7.243297423530952053e-08 -4.620391863008251449e-06 -1.513166684412001939e-06 -3.145649154957239883e-07 -2.773049084690351154e-07 -2.345506775088844642e-07 -6.019369327196886014e-08 -5.192605181308263351e-06 -1.503509773180975437e-06 -2.883252152894785870e-07 -3.015285687353147221e-07 -2.427606826513424725e-07 -2.397525407004514425e-08 -5.882661274632383302e-06 -1.406973779154921799e-06 -2.650498130985644770e-07 -3.475040621415002678e-07 -2.194707551588996007e-07 7.370322647059536640e-08
-4.869308311173670009e-05 -8.049706685604270962e-07 -5.112302384072960795e-07 -2.282140713402372538e-07 -6.352534768725018353e-08 -2.478581373556306498e-08 -1.787749242313852144e-08 -4.832756525234058092e-09 6.282397089809742463e-09 -1.856045817153172535e-06 -1.325217054454781159e-06 -7.730024594078999121e-07 -2.813624354210983185e-07 -6.505961510712729551e-08 6.681527578109705545e-02 -2.102834223135583091e-08 4.500171263378251540e-09 1.989080432885792420e-08 -2.038235442395560841e-06 -1.424498967517953066e-06 -7.933511177701926815e-07 -2.678308101864844250e-07 -5.399820469653621982e-08 -2.762668583258922762e-08 -1.255836771396700960e-08 1.363214521788592542e-08 2.697256451827788032e-08 -2.283938107085893923e-06 -1.551977232841066787e-06 -8.173662866096665687e-07 -2.506925956982232016e-07 -3.750962302451588500e-08 -1.530935663502176784e-08 7.618909945881208504e-10 2.677333531665887517e-08 3.656659288209605621e-08 -2.367455068585562613e-06 -1.580674333440290400e-06 -8.091035723567797530e-07 -2.371567262479169576e-07 -2.634537695666512248e-08 -6.176990129447245807e-09 9.055476489570950224e-09 3.451828699767548413e-08 4.233372775873270339e-08 -4.983919898371234017e-06 -3.286836347522487879e-06 -1.607929591807701156e-06 -4.081370474816749557e-07 -1.191486900703048240e-07 -9.714245945610689477e-08 -2.239212616237654362e-08 5.305267939910655134e-08 7.581169416863608650e-08 -6.148162962562924507e-06 -3.910354775625948695e-06 -1.758795721342094203e-06 -3.698172955635843235e-07 -1.105748584640896928e-07 -9.423878759805030829e-08 7.179602376655620022e-09 9.339672686345858153e-08 1.082499840198387836e-07 -7.384313508034927456e-06 -4.628195896791662768e-06 -1.929521607496743360e-06 -3.290691945062325851e-07 -1.126792607432328211e-07 -9.270086045096593859e-08 4.798269399813223477e-08 1.391122629371725319e-07 1.464695945711210937e-07 -7.786169623152808676e-06 -4.826380153532996722e-06 -1.936495336953413964e-06 -2.671345207338117162e-07 -7.441854523440483072e-08 -6.815750094901513841e-08 6.435580188844334592e-08 1.625900901311420193e-07 1.616722687894603423e-07 -8.802516706729772498e-06 -5.245320881365737214e-06 -1.919208413328440948e-06 -2.913449711135950525e-07 -1.278698675630594476e-07 -6.590707053144195577e-08 1.030270757368677304e-07 2.016590130104674084e-07 1.851366983927671809e-07 -1.162391421545372019e-05 -6.530894269921895286e-06 -1.922895925810534067e-06 -1.024039058282680518e-07 -6.462010846337675915e-08 2.392112478479429582e-08 2.363035587716932652e-07 3.456828297510364808e-07 2.798328180984017134e-07 -1.268701461706697385e-05 -6.914545224384373572e-06 -1.874770098985338800e-06 -7.566958220980361669e-09 -3.219334762711838262e-08 6.932431671084855243e-08 3.256686247339238885e-07 4.149769939555355106e-07 3.243147682719848286e-07 -1.722114178593060166e-05 -8.701604591091592289e-06 -1.655031555905249356e-06 1.929347429703814491e-07 2.690169053378769153e-08 2.765501615335503149e-07 6.258423815857844868e-07 6.757168443962124243e-07 4.792346961645259577e-07 -1.933453810771211455e-05 -9.143736100788633724e-06 -1.095325748204079813e-06 5.397771827583135799e-07 2.416723900135280231e-07 5.409287050231694493e-07 9.014432354467212451e-07 8.863522335009948350e-07 5.892687479038948409e-07 -2.232298310942912808e-05 -9.267789831619847358e-06 7.137896540125685694e-08 1.177775747157747796e-06 7.434671139151429550e-07 1.136661983462932208e-06 1.461632238538421534e-06 1.270214951621314817e-06 7.604180416043105376e-07 -1.063905222965188148e-07 -1.036560392340601853e-07 -6.076932706032276300e-08 -2.080205146439786003e-08 -7.421739602380124461e-09 -5.944895586077002076e-09 -2.044251338016483778e-07 -1.772352738921818642e-07 -8.408052338533965358e-08 -2.463607271048736776e-08 -1.153285258014583965e-08 -1.030538042402058793e-08 -2.329165647862917650e-07 -1.900763921335565884e-07 -8.557130177061392500e-08 -2.448074730404148519e-08 -1.208729629535394268e-08 -1.050873095321443819e-08 -2.692776032817434607e-07 -2.063670579597765589e-07 -8.821253853771929429e-08 -2.452446212881993720e-08 -1.262208850374613776e-08 -1.047001768989366060e-08 -2.814490809665617570e-07 -2.100676297089464098e-07 -8.839119909800985915e-08 -2.415402429989964502e-08 -1.228487135621432175e-08 -1.066516741654634886e-08 -6.384571526040811402e-07 -4.213449934919708108e-07 -1.432012922596933004e-07 -4.366361974712537877e-08 -3.582544481882117237e-08 -2.844918681247431261e-08 -8.193057696599252753e-07 -4.888653387251260983e-07 -1.487967658556494430e-07 -4.845781454917496591e-08 -4.447591256943587749e-08 -3.261428496997794117e-08 -1.018911571522123858e-06 -5.627123087217280766e-07 -1.542990263672015270e-07 -5.620057883702005757e-08 -5.698391771346283215e-08 -3.613335767146922370e-08 -1.090593403153773203e-06 -5.866179857803369816e-07 -1.544167292029457542e-07 -5.235704648480446072e-08 -5.505781996988264964e-08 -3.713476151583147235e-08 -1.226408272131304890e-06 -5.925347000094803388e-07 -1.576805887338452401e-07 -7.036123640858959547e-08 -6.720680171058829452e-08 -3.899831187378125453e-08 -1.669870482151844379e-06 -6.936160395082573202e-07 -1.598206955357866319e-07 -8.577680714842169469e-08 -8.227486637192456122e-08 -4.253664812056050155e-08 -1.830333171859799236e-06 -7.197124492285118276e-07 -1.542437086214597495e-07 -9.671086244758924321e-08 -9.309615553822290130e-08 -3.862930261961934954e-08 -2.464105849326923997e-06 -8.069884521956147399e-07 -1.677609326758219996e-07 -1.478897607097608943e-07 -1.250884586306360754e-07 -3.210195933196852604e-08 -2.769273511830728885e-06 -8.018383151171310654e-07 -1.537670116665557066e-07 -1.608085054231984907e-07 -1.294669447621918898e-07 -1.278626695412650071e-08 -3.137288023659725884e-06 -7.503546066778836687e-07 -1.413539834246769626e-07 -1.853277422296872450e-07 -1.170461700170897195e-07 3.930674212169883480e-08
-2.951075164500443701e-05 -4.878575757236063438e-07 -3.098343262519289182e-07 -1.383105843957898029e-07 -3.849993960043853931e-08 -1.502159951118883225e-08 -1.083476759366516908e-08 -2.928922722960235779e-09 3.807486575192578188e-09 -1.124868331423325912e-06 -8.031561953059604913e-07 -4.684830399467087499e-07 -1.705214873104691951e-07 -3.942979209470588321e-08 -2.102834223135583091e-08 6.681529773374599024e-02 2.727357317029926567e-09 1.205494803484357814e-08 -1.235285508550658028e-06 -8.633266279837380122e-07 -4.808154733204732510e-07 -1.623205600712631385e-07 -3.272595420624531949e-08 -1.674332805152754381e-08 -7.611078350144427840e-09 8.261848012181006430e-09 1.634689368305574606e-08 -1.384195165791986345e-06 -9.405856386619842397e-07 -4.953700186079073213e-07 -1.519338365557010768e-07 -2.273294477645057303e-08 -9.278332621990640170e-09 4.617488662663063906e-10 1.622614956266560065e-08 2.216141538154978188e-08 -1.434811149653728707e-06 -9.579776983673033108e-07 -4.903623482644410381e-07 -1.437303370826741037e-07 -1.596678268611769101e-08 -3.743604018777441423e-09 5.488128921672088840e-09 2.092002661778167326e-08 2.565662402662826936e-08 -3.020536243349480709e-06 -1.992008000950139680e-06 -9.744959204493884274e-07 -2.473540444690792825e-07 -7.221081880200055851e-08 -5.887380325899098602e-08 -1.357088998585556811e-08 3.215291260683609063e-08 4.594615775845983067e-08 -3.726133131575656088e-06 -2.369895296269290245e-06 -1.065929294469186793e-06 -2.241301159419414301e-07 -6.701459381463436137e-08 -5.711401452544409955e-08 4.351243525926957461e-09 5.660367828011900864e-08 6.560558892224198168e-08 -4.475310004593750222e-06 -2.804947457552271960e-06 -1.169398799863244483e-06 -1.994344710276599127e-07 -6.828998015397267469e-08 -5.618194403030682738e-08 2.908021582013605332e-08 8.430986867052446582e-08 8.876882613931241852e-08 -4.718857450194122440e-06 -2.925058282476266116e-06 -1.173625272801156647e-06 -1.618985694352685637e-07 -4.510183101685140767e-08 -4.130728544411533760e-08 3.900324163263323420e-08 9.853875464793683470e-08 9.798250320650110867e-08 -5.334821041978578573e-06 -3.178959965897693046e-06 -1.163148423170746311e-06 -1.765714663379351462e-07 -7.749634369780756104e-08 -3.994339782593003447e-08 6.244021225365628151e-08 1.222167229845053747e-07 1.122032694891761370e-07 -7.044746884643442544e-06 -3.958089866217419526e-06 -1.165383263482607241e-06 -6.206253618079137625e-08 -3.916342630759216138e-08 1.449754929202811512e-08 1.432132695261865247e-07 2.095032699678511756e-07 1.695944530370711963e-07 -7.689045621154363063e-06 -4.190603958815145030e-06 -1.136216301105429312e-06 -4.586002990507937664e-09 -1.951098237638989577e-08 4.201444153205348200e-08 1.973735341637560671e-07 2.514994373823197206e-07 1.965530208740227716e-07 -1.043698212992207165e-05 -5.273662614697711330e-06 -1.003042364331058076e-06 1.169293238307871281e-07 1.630394005554396616e-08 1.676049782199010794e-07 3.792957420567296885e-07 4.095224763559136744e-07 2.904432250824479085e-07 -1.171781936580716703e-05 -5.541619218455162958e-06 -6.638291120620804648e-07 3.271353828113067719e-07 1.464670837288763714e-07 3.278332701784688840e-07 5.463253863447679668e-07 5.371793889661943894e-07 3.571300595538391345e-07 -1.352898540037622404e-05 -5.616802768299304212e-06 4.325967439359225566e-08 7.137984565102265582e-07 4.505829566107233857e-07 6.888811994368772208e-07 8.858314822427520337e-07 7.698218222709495203e-07 4.608561737746388410e-07 -6.447865035923566485e-08 -6.282139956760860530e-08 -3.682963583135638476e-08 -1.260721513697864349e-08 -4.497992326284679746e-09 -3.602941649712766576e-09 -1.238931480221499816e-07 -1.074145610900088130e-07 -5.095753411450492056e-08 -1.493084801385733098e-08 -6.989558403400793351e-09 -6.245641123251423213e-09 -1.411605603539834542e-07 -1.151970021894101491e-07 -5.186102980371021264e-08 -1.483671206680166362e-08 -7.325582531162301411e-09 -6.368883000339987525e-09 -1.631973981966683878e-07 -1.250700634664329178e-07 -5.346176808702737252e-08 -1.486320571343072303e-08 -7.649696738663394538e-09 -6.345420581733108295e-09 -1.705739993924716828e-07 -1.273128184298775833e-07 -5.357004645197284066e-08 -1.463869951931490198e-08 -7.445324149061453342e-09 -6.463692310463505892e-09 -3.869410039869570013e-07 -2.553588038628527472e-07 -8.678805080840937516e-08 -2.646261349527782209e-08 -2.171223790027812876e-08 -1.724180998353958768e-08 -4.965454546032937733e-07 -2.962799370469687047e-07 -9.017922304631272216e-08 -2.936816564149127548e-08 -2.695490870869073126e-08 -1.976609412100321921e-08 -6.175178159577854184e-07 -3.410353612682075254e-07 -9.351390290361240687e-08 -3.406071701311168176e-08 -3.453546450411635716e-08 -2.189885043623010886e-08 -6.609610443499253371e-07 -3.555235483678706467e-07 -9.358523745323601426e-08 -3.173131987008224948e-08 -3.336814075868078981e-08 -2.250575758317566447e-08 -7.432725065117593561e-07 -3.591094105275954565e-07 -9.556332020884076707e-08 -4.264287328704484389e-08 -4.073110814497144644e-08 -2.363517408911384368e-08 -1.012035589634473882e-06 -4.203703970017459556e-07 -9.686034550052238547e-08 -5.198557764045905559e-08 -4.986320423695996845e-08 -2.577960519805816351e-08 -1.109285019772108316e-06 -4.361862915162397765e-07 -9.348037723319222525e-08 -5.861223115644278314e-08 -5.642151512338715857e-08 -2.341153369178489219e-08 -1.493386967911303494e-06 -4.890804662847715031e-07 -1.016725765458296033e-07 -8.962952682889233743e-08 -7.581065318526413307e-08 -1.945559592087959463e-08 -1.678335763976870937e-06 -4.859591930659018924e-07 -9.319147202228533963e-08 -9.745901394369730695e-08 -7.846426245689175998e-08 -7.749198129107672527e-09 -1.901373291410112295e-06 -4.547571652536962310e-07 -8.566847758038657153e-08 -1.123190528174102379e-07 -7.093657319761578569e-08 2.382210019574825725e-08
6.315449646597212876e-06 1.044039810051730522e-07 6.630610801682737454e-08 2.959916242902302281e-08 8.239181192958972500e-09 3.214698034989617754e-09 2.318694894440576069e-09 6.268042304764882626e-10 -8.148213246135359375e-10 2.407274945624236045e-07 1.718794753459295817e-07 1.002577326616170289e-07 3.649245806161749170e-08 8.438174315091200716e-09 4.500171263378251540e-09 2.727357317029926567e-09 6.681530989443786039e-02 -2.579819661058626188e-09 2.643573271961552127e-07 1.847562513210612749e-07 1.028969355842985610e-07 3.473741828297529418e-08 7.003519205901863339e-09 3.583156623656542074e-09 1.628809142337794368e-09 -1.768077131224171052e-09 -3.498317669963269597e-09 2.962247446551359308e-07 2.012900691496890223e-07 1.060116816604957956e-07 3.251460708030763125e-08 4.864964802712911286e-09 1.985609962885558313e-09 -9.881658553999769584e-11 -3.472477819402373376e-09 -4.742654630526663521e-09 3.070568204096659531e-07 2.050120576181917811e-07 1.049400149580899481e-07 3.075901683065843337e-08 3.416972000081406417e-09 8.011501354419109552e-10 -1.174487260636113202e-09 -4.476991175941079482e-09 -5.490646903576106207e-09 6.464099857593676589e-07 4.262997559992338726e-07 2.085470404293930103e-07 5.293501268684486987e-08 1.545347931389570625e-08 1.259929074184625412e-08 2.904238882024189817e-09 -6.880885414326204474e-09 -9.832709422949750006e-09 7.974112774917124908e-07 5.071695425226447799e-07 2.281142434809043670e-07 4.796497488592224621e-08 1.434146096699411271e-08 1.222268707993153708e-08 -9.311880537182326528e-10 -1.211347255029315936e-08 -1.403992681575470709e-08 9.577389057018143864e-07 6.002728985901974617e-07 2.502572393332349994e-07 4.267998235768919885e-08 1.461440007416905648e-08 1.202321929442987986e-08 -6.223312809293959983e-09 -1.804273698972539808e-08 -1.899697637031453300e-08 1.009859287037709562e-06 6.259772207282323130e-07 2.511617258520189978e-07 3.464711015917627223e-08 9.652019243111304068e-09 8.839967358272592372e-09 -8.346890365520618981e-09 -2.108779033158877454e-08 -2.096874971847619599e-08 1.141678601396325866e-06 6.803134611643761567e-07 2.489196272063538011e-07 3.778718407776755592e-08 1.658460829145787968e-08 8.548088531196873545e-09 -1.336252024870270986e-08 -2.615499494101916360e-08 -2.401206540472591235e-08 1.507611353251302787e-06 8.470511882415678403e-07 2.493978943012595830e-07 1.328169566484949922e-08 8.381170693620323757e-09 -3.102548645803930908e-09 -3.064836176649170457e-08 -4.483475609823719950e-08 -3.629406805296090289e-08 1.645494531448484594e-06 8.968103764042236925e-07 2.431560172913785058e-07 9.814277628065737126e-10 4.175448603817407982e-09 -8.991302326604854546e-09 -4.223893147747537718e-08 -5.382214767153993739e-08 -4.206333749640673163e-08 2.233566799546960981e-06 1.128590389594618881e-06 2.146561233525524597e-07 -2.502346486281388986e-08 -3.489125377101583558e-09 -3.586831041106301823e-08 -8.117120122670603297e-08 -8.763987477131511251e-08 -6.215631459573501892e-08 2.507672426066588933e-06 1.185934453848226297e-06 1.420627770381813382e-07 -7.000862135325665572e-08 -3.134469441174810441e-08 -7.015797276860951805e-08 -1.169163872754902932e-07 -1.149590977219363570e-07 -7.642763341069743068e-08 2.895271089446764237e-06 1.202024112593786719e-06 -9.257788437495476414e-09 -1.527564686978161277e-07 -9.642702457467319710e-08 -1.474240500501638916e-07 -1.895724036029999009e-07 -1.647457514429961486e-07 -9.862554484578426128e-08 1.379875628119532106e-08 1.344409625585246287e-08 7.881727764627012378e-09 2.698007605471644172e-09 9.625930369089821599e-10 7.710476792359400352e-10 2.651375835168720686e-08 2.298725766241623862e-08 1.090516923073333488e-08 3.195276756987455559e-09 1.495800740002516627e-09 1.336598691185430749e-09 3.020907165378624710e-08 2.465273929711387129e-08 1.109852186369006208e-08 3.175131189679770366e-09 1.567711597592576699e-09 1.362973074273592369e-09 3.492506606287015156e-08 2.676562419082552036e-08 1.144108792731593697e-08 3.180800963640572994e-09 1.637073672196543194e-09 1.357951998393127076e-09 3.650369591193435791e-08 2.724558506107629466e-08 1.146426004335876072e-08 3.132755506129236759e-09 1.593336907565736795e-09 1.383262744672924891e-09 8.280732582753673298e-08 5.464807155747720273e-08 1.857308046234101555e-08 5.663132713703058412e-09 4.646528384761021548e-09 3.689834270475932905e-09 1.062632308901108101e-07 6.340540038511247570e-08 1.929880841969863273e-08 6.284935522920213408e-09 5.768486371548515155e-09 4.230043803449800974e-09 1.321519261681785247e-07 7.298328682736369505e-08 2.001244672276988931e-08 7.289165176506688888e-09 7.390763533280362597e-09 4.686464408363728766e-09 1.414489960868508908e-07 7.608383191679691405e-08 2.002771267606141803e-08 6.790662442970924544e-09 7.140950366057169609e-09 4.816345597863809442e-09 1.590640640076590784e-07 7.685122449905985779e-08 2.045103235934501194e-08 9.125789890754800143e-09 8.716662511143373070e-09 5.058046424704517044e-09 2.165807189117388083e-07 8.996138448523775014e-08 2.072860231142601502e-08 1.112517572873023107e-08 1.067097711927717059e-08 5.516965494338821836e-09 2.373925872972894245e-07 9.334606565580655591e-08 2.000527206026199705e-08 1.254331299304237284e-08 1.207448871627753445e-08 5.010186252070958838e-09 3.195923408587551254e-07 1.046656857511328310e-07 2.175844401861188599e-08 1.918117065757707414e-08 1.622386202244453932e-08 4.163595623077148176e-09 3.591723157371174914e-07 1.039977175446916654e-07 1.994344488845456689e-08 2.085672037677925974e-08 1.679174778619277873e-08 1.658367471442202666e-09 4.069034711732964447e-07 9.732032627082122744e-08 1.833348614660446138e-08 2.403684362075287156e-08 1.518078432975245693e-08 -5.098049554014303015e-09
